digraph Tree {
node [shape=box, style="filled, rounded", color="black", fontname=helvetica] ;
edge [fontname=helvetica] ;
0 [label="age <= 44.5\ngini = 0.23\nsamples = 1344\nvalue = [1850, 281]\nclass = o", fillcolor="#e99457"] ;
1 [label="income_cat_$50,000 to $99,999 <= 0.5\ngini = 0.34\nsamples = 728\nvalue = [910, 247]\nclass = o", fillcolor="#eca36f"] ;
0 -> 1 [labeldistance=2.5, labelangle=45, headlabel="True"] ;
2 [label="income_cat_More than $300,000 <= 0.5\ngini = 0.28\nsamples = 473\nvalue = [627, 127]\nclass = o", fillcolor="#ea9b61"] ;
1 -> 2 ;
3 [label="region_West <= 0.5\ngini = 0.27\nsamples = 464\nvalue = [617, 116]\nclass = o", fillcolor="#ea995e"] ;
2 -> 3 ;
4 [label="age <= 30.5\ngini = 0.24\nsamples = 338\nvalue = [455, 75]\nclass = o", fillcolor="#e9965a"] ;
3 -> 4 ;
5 [label="income_cat_Less than $29,999 <= 0.5\ngini = 0.19\nsamples = 245\nvalue = [345, 41]\nclass = o", fillcolor="#e89051"] ;
4 -> 5 ;
6 [label="income_cat_$30,000 to $49,999 <= 0.5\ngini = 0.25\nsamples = 167\nvalue = [219, 37]\nclass = o", fillcolor="#e9965a"] ;
5 -> 6 ;
7 [label="children_No <= 0.5\ngini = 0.24\nsamples = 103\nvalue = [136, 22]\nclass = o", fillcolor="#e99559"] ;
6 -> 7 ;
8 [label="gender_Female <= 0.5\ngini = 0.35\nsamples = 50\nvalue = [57, 17]\nclass = o", fillcolor="#eda774"] ;
7 -> 8 ;
9 [label="income_cat_$100,000 to $299,999 <= 0.5\ngini = 0.31\nsamples = 18\nvalue = [21, 5]\nclass = o", fillcolor="#eb9f68"] ;
8 -> 9 ;
10 [label="region_Northeast <= 0.5\ngini = 0.28\nsamples = 5\nvalue = [5, 1]\nclass = o", fillcolor="#ea9a61"] ;
9 -> 10 ;
11 [label="age <= 18.5\ngini = 0.38\nsamples = 4\nvalue = [3, 1]\nclass = o", fillcolor="#eeab7b"] ;
10 -> 11 ;
12 [label="region_Midwest <= 0.5\ngini = 0.44\nsamples = 3\nvalue = [2, 1]\nclass = o", fillcolor="#f2c09c"] ;
11 -> 12 ;
13 [label="gini = 0.0\nsamples = 1\nvalue = [1, 0]\nclass = o", fillcolor="#e58139"] ;
12 -> 13 ;
14 [label="gini = 0.5\nsamples = 2\nvalue = [1, 1]\nclass = o", fillcolor="#ffffff"] ;
12 -> 14 ;
15 [label="gini = 0.0\nsamples = 1\nvalue = [1, 0]\nclass = o", fillcolor="#e58139"] ;
11 -> 15 ;
16 [label="gini = 0.0\nsamples = 1\nvalue = [2, 0]\nclass = o", fillcolor="#e58139"] ;
10 -> 16 ;
17 [label="age <= 23.0\ngini = 0.32\nsamples = 13\nvalue = [16, 4]\nclass = o", fillcolor="#eca06a"] ;
9 -> 17 ;
18 [label="gini = 0.0\nsamples = 6\nvalue = [6, 0]\nclass = o", fillcolor="#e58139"] ;
17 -> 18 ;
19 [label="age <= 25.0\ngini = 0.41\nsamples = 7\nvalue = [10, 4]\nclass = o", fillcolor="#efb388"] ;
17 -> 19 ;
20 [label="gini = 0.0\nsamples = 1\nvalue = [0, 2]\nclass = w", fillcolor="#399de5"] ;
19 -> 20 ;
21 [label="region_South <= 0.5\ngini = 0.28\nsamples = 6\nvalue = [10, 2]\nclass = o", fillcolor="#ea9a61"] ;
19 -> 21 ;
22 [label="age <= 26.5\ngini = 0.41\nsamples = 4\nvalue = [5, 2]\nclass = o", fillcolor="#efb388"] ;
21 -> 22 ;
23 [label="gini = 0.0\nsamples = 1\nvalue = [0, 1]\nclass = w", fillcolor="#399de5"] ;
22 -> 23 ;
24 [label="age <= 28.0\ngini = 0.28\nsamples = 3\nvalue = [5, 1]\nclass = o", fillcolor="#ea9a61"] ;
22 -> 24 ;
25 [label="gini = 0.32\nsamples = 2\nvalue = [4, 1]\nclass = o", fillcolor="#eca06a"] ;
24 -> 25 ;
26 [label="gini = 0.0\nsamples = 1\nvalue = [1, 0]\nclass = o", fillcolor="#e58139"] ;
24 -> 26 ;
27 [label="gini = 0.0\nsamples = 2\nvalue = [5, 0]\nclass = o", fillcolor="#e58139"] ;
21 -> 27 ;
28 [label="region_South <= 0.5\ngini = 0.38\nsamples = 32\nvalue = [36, 12]\nclass = o", fillcolor="#eeab7b"] ;
8 -> 28 ;
29 [label="age <= 22.0\ngini = 0.22\nsamples = 12\nvalue = [14, 2]\nclass = o", fillcolor="#e99355"] ;
28 -> 29 ;
30 [label="gini = 0.0\nsamples = 7\nvalue = [10, 0]\nclass = o", fillcolor="#e58139"] ;
29 -> 30 ;
31 [label="age <= 25.0\ngini = 0.44\nsamples = 5\nvalue = [4, 2]\nclass = o", fillcolor="#f2c09c"] ;
29 -> 31 ;
32 [label="gini = 0.0\nsamples = 1\nvalue = [0, 1]\nclass = w", fillcolor="#399de5"] ;
31 -> 32 ;
33 [label="region_Northeast <= 0.5\ngini = 0.32\nsamples = 4\nvalue = [4, 1]\nclass = o", fillcolor="#eca06a"] ;
31 -> 33 ;
34 [label="gini = 0.44\nsamples = 2\nvalue = [2, 1]\nclass = o", fillcolor="#f2c09c"] ;
33 -> 34 ;
35 [label="gini = 0.0\nsamples = 2\nvalue = [2, 0]\nclass = o", fillcolor="#e58139"] ;
33 -> 35 ;
36 [label="age <= 16.5\ngini = 0.43\nsamples = 20\nvalue = [22, 10]\nclass = o", fillcolor="#f1ba93"] ;
28 -> 36 ;
37 [label="income_cat_$100,000 to $299,999 <= 0.5\ngini = 0.48\nsamples = 4\nvalue = [4, 6]\nclass = w", fillcolor="#bddef6"] ;
36 -> 37 ;
38 [label="gini = 0.0\nsamples = 1\nvalue = [0, 4]\nclass = w", fillcolor="#399de5"] ;
37 -> 38 ;
39 [label="age <= 15.5\ngini = 0.44\nsamples = 3\nvalue = [4, 2]\nclass = o", fillcolor="#f2c09c"] ;
37 -> 39 ;
40 [label="gini = 0.0\nsamples = 2\nvalue = [4, 0]\nclass = o", fillcolor="#e58139"] ;
39 -> 40 ;
41 [label="gini = 0.0\nsamples = 1\nvalue = [0, 2]\nclass = w", fillcolor="#399de5"] ;
39 -> 41 ;
42 [label="income_cat_$100,000 to $299,999 <= 0.5\ngini = 0.3\nsamples = 16\nvalue = [18, 4]\nclass = o", fillcolor="#eb9d65"] ;
36 -> 42 ;
43 [label="gini = 0.0\nsamples = 5\nvalue = [6, 0]\nclass = o", fillcolor="#e58139"] ;
42 -> 43 ;
44 [label="age <= 18.5\ngini = 0.38\nsamples = 11\nvalue = [12, 4]\nclass = o", fillcolor="#eeab7b"] ;
42 -> 44 ;
45 [label="gini = 0.0\nsamples = 1\nvalue = [0, 1]\nclass = w", fillcolor="#399de5"] ;
44 -> 45 ;
46 [label="age <= 27.5\ngini = 0.32\nsamples = 10\nvalue = [12, 3]\nclass = o", fillcolor="#eca06a"] ;
44 -> 46 ;
47 [label="age <= 25.5\ngini = 0.44\nsamples = 4\nvalue = [4, 2]\nclass = o", fillcolor="#f2c09c"] ;
46 -> 47 ;
48 [label="age <= 21.0\ngini = 0.32\nsamples = 3\nvalue = [4, 1]\nclass = o", fillcolor="#eca06a"] ;
47 -> 48 ;
49 [label="gini = 0.0\nsamples = 1\nvalue = [2, 0]\nclass = o", fillcolor="#e58139"] ;
48 -> 49 ;
50 [label="age <= 23.5\ngini = 0.44\nsamples = 2\nvalue = [2, 1]\nclass = o", fillcolor="#f2c09c"] ;
48 -> 50 ;
51 [label="gini = 0.0\nsamples = 1\nvalue = [0, 1]\nclass = w", fillcolor="#399de5"] ;
50 -> 51 ;
52 [label="gini = 0.0\nsamples = 1\nvalue = [2, 0]\nclass = o", fillcolor="#e58139"] ;
50 -> 52 ;
53 [label="gini = 0.0\nsamples = 1\nvalue = [0, 1]\nclass = w", fillcolor="#399de5"] ;
47 -> 53 ;
54 [label="age <= 28.5\ngini = 0.2\nsamples = 6\nvalue = [8, 1]\nclass = o", fillcolor="#e89152"] ;
46 -> 54 ;
55 [label="gini = 0.0\nsamples = 1\nvalue = [1, 0]\nclass = o", fillcolor="#e58139"] ;
54 -> 55 ;
56 [label="gini = 0.22\nsamples = 5\nvalue = [7, 1]\nclass = o", fillcolor="#e99355"] ;
54 -> 56 ;
57 [label="region_Midwest <= 0.5\ngini = 0.11\nsamples = 53\nvalue = [79, 5]\nclass = o", fillcolor="#e78946"] ;
7 -> 57 ;
58 [label="gender_Male <= 0.5\ngini = 0.06\nsamples = 40\nvalue = [58, 2]\nclass = o", fillcolor="#e68540"] ;
57 -> 58 ;
59 [label="age <= 23.5\ngini = 0.06\nsamples = 23\nvalue = [32, 1]\nclass = o", fillcolor="#e6853f"] ;
58 -> 59 ;
60 [label="gini = 0.0\nsamples = 17\nvalue = [24, 0]\nclass = o", fillcolor="#e58139"] ;
59 -> 60 ;
61 [label="region_Northeast <= 0.5\ngini = 0.2\nsamples = 6\nvalue = [8, 1]\nclass = o", fillcolor="#e89152"] ;
59 -> 61 ;
62 [label="gini = 0.0\nsamples = 3\nvalue = [4, 0]\nclass = o", fillcolor="#e58139"] ;
61 -> 62 ;
63 [label="income_cat_Do not know <= 0.5\ngini = 0.32\nsamples = 3\nvalue = [4, 1]\nclass = o", fillcolor="#eca06a"] ;
61 -> 63 ;
64 [label="age <= 24.5\ngini = 0.5\nsamples = 2\nvalue = [1, 1]\nclass = o", fillcolor="#ffffff"] ;
63 -> 64 ;
65 [label="gini = 0.0\nsamples = 1\nvalue = [0, 1]\nclass = w", fillcolor="#399de5"] ;
64 -> 65 ;
66 [label="gini = 0.0\nsamples = 1\nvalue = [1, 0]\nclass = o", fillcolor="#e58139"] ;
64 -> 66 ;
67 [label="gini = 0.0\nsamples = 1\nvalue = [3, 0]\nclass = o", fillcolor="#e58139"] ;
63 -> 67 ;
68 [label="region_Northeast <= 0.5\ngini = 0.07\nsamples = 17\nvalue = [26, 1]\nclass = o", fillcolor="#e68641"] ;
58 -> 68 ;
69 [label="age <= 17.0\ngini = 0.15\nsamples = 8\nvalue = [11, 1]\nclass = o", fillcolor="#e78c4b"] ;
68 -> 69 ;
70 [label="gini = 0.0\nsamples = 1\nvalue = [0, 1]\nclass = w", fillcolor="#399de5"] ;
69 -> 70 ;
71 [label="gini = 0.0\nsamples = 7\nvalue = [11, 0]\nclass = o", fillcolor="#e58139"] ;
69 -> 71 ;
72 [label="gini = 0.0\nsamples = 9\nvalue = [15, 0]\nclass = o", fillcolor="#e58139"] ;
68 -> 72 ;
73 [label="income_cat_Do not know <= 0.5\ngini = 0.22\nsamples = 13\nvalue = [21, 3]\nclass = o", fillcolor="#e99355"] ;
57 -> 73 ;
74 [label="age <= 17.0\ngini = 0.41\nsamples = 5\nvalue = [5, 2]\nclass = o", fillcolor="#efb388"] ;
73 -> 74 ;
75 [label="gini = 0.0\nsamples = 1\nvalue = [0, 1]\nclass = w", fillcolor="#399de5"] ;
74 -> 75 ;
76 [label="age <= 27.0\ngini = 0.28\nsamples = 4\nvalue = [5, 1]\nclass = o", fillcolor="#ea9a61"] ;
74 -> 76 ;
77 [label="gini = 0.0\nsamples = 3\nvalue = [5, 0]\nclass = o", fillcolor="#e58139"] ;
76 -> 77 ;
78 [label="gini = 0.0\nsamples = 1\nvalue = [0, 1]\nclass = w", fillcolor="#399de5"] ;
76 -> 78 ;
79 [label="age <= 16.0\ngini = 0.11\nsamples = 8\nvalue = [16, 1]\nclass = o", fillcolor="#e78945"] ;
73 -> 79 ;
80 [label="gini = 0.38\nsamples = 2\nvalue = [3, 1]\nclass = o", fillcolor="#eeab7b"] ;
79 -> 80 ;
81 [label="gini = 0.0\nsamples = 6\nvalue = [13, 0]\nclass = o", fillcolor="#e58139"] ;
79 -> 81 ;
82 [label="children_No <= 0.5\ngini = 0.26\nsamples = 64\nvalue = [83, 15]\nclass = o", fillcolor="#ea985d"] ;
6 -> 82 ;
83 [label="region_Northeast <= 0.5\ngini = 0.2\nsamples = 32\nvalue = [48, 6]\nclass = o", fillcolor="#e89152"] ;
82 -> 83 ;
84 [label="age <= 21.5\ngini = 0.26\nsamples = 25\nvalue = [33, 6]\nclass = o", fillcolor="#ea985d"] ;
83 -> 84 ;
85 [label="age <= 19.0\ngini = 0.39\nsamples = 8\nvalue = [11, 4]\nclass = o", fillcolor="#eeaf81"] ;
84 -> 85 ;
86 [label="gini = 0.0\nsamples = 4\nvalue = [8, 0]\nclass = o", fillcolor="#e58139"] ;
85 -> 86 ;
87 [label="gender_Female <= 0.5\ngini = 0.49\nsamples = 4\nvalue = [3, 4]\nclass = w", fillcolor="#cee6f8"] ;
85 -> 87 ;
88 [label="gini = 0.0\nsamples = 1\nvalue = [2, 0]\nclass = o", fillcolor="#e58139"] ;
87 -> 88 ;
89 [label="age <= 20.5\ngini = 0.32\nsamples = 3\nvalue = [1, 4]\nclass = w", fillcolor="#6ab6ec"] ;
87 -> 89 ;
90 [label="gini = 0.5\nsamples = 2\nvalue = [1, 1]\nclass = o", fillcolor="#ffffff"] ;
89 -> 90 ;
91 [label="gini = 0.0\nsamples = 1\nvalue = [0, 3]\nclass = w", fillcolor="#399de5"] ;
89 -> 91 ;
92 [label="gender_Female <= 0.5\ngini = 0.15\nsamples = 17\nvalue = [22, 2]\nclass = o", fillcolor="#e78c4b"] ;
84 -> 92 ;
93 [label="gini = 0.0\nsamples = 3\nvalue = [4, 0]\nclass = o", fillcolor="#e58139"] ;
92 -> 93 ;
94 [label="age <= 23.5\ngini = 0.18\nsamples = 14\nvalue = [18, 2]\nclass = o", fillcolor="#e88f4f"] ;
92 -> 94 ;
95 [label="gini = 0.0\nsamples = 4\nvalue = [6, 0]\nclass = o", fillcolor="#e58139"] ;
94 -> 95 ;
96 [label="region_South <= 0.5\ngini = 0.24\nsamples = 10\nvalue = [12, 2]\nclass = o", fillcolor="#e9965a"] ;
94 -> 96 ;
97 [label="age <= 24.5\ngini = 0.28\nsamples = 4\nvalue = [5, 1]\nclass = o", fillcolor="#ea9a61"] ;
96 -> 97 ;
98 [label="gini = 0.0\nsamples = 1\nvalue = [0, 1]\nclass = w", fillcolor="#399de5"] ;
97 -> 98 ;
99 [label="gini = 0.0\nsamples = 3\nvalue = [5, 0]\nclass = o", fillcolor="#e58139"] ;
97 -> 99 ;
100 [label="age <= 27.5\ngini = 0.22\nsamples = 6\nvalue = [7, 1]\nclass = o", fillcolor="#e99355"] ;
96 -> 100 ;
101 [label="gini = 0.0\nsamples = 3\nvalue = [3, 0]\nclass = o", fillcolor="#e58139"] ;
100 -> 101 ;
102 [label="gini = 0.32\nsamples = 3\nvalue = [4, 1]\nclass = o", fillcolor="#eca06a"] ;
100 -> 102 ;
103 [label="gini = 0.0\nsamples = 7\nvalue = [15, 0]\nclass = o", fillcolor="#e58139"] ;
83 -> 103 ;
104 [label="gender_Female <= 0.5\ngini = 0.33\nsamples = 32\nvalue = [35, 9]\nclass = o", fillcolor="#eca16c"] ;
82 -> 104 ;
105 [label="region_Midwest <= 0.5\ngini = 0.46\nsamples = 13\nvalue = [9, 5]\nclass = o", fillcolor="#f3c7a7"] ;
104 -> 105 ;
106 [label="region_South <= 0.5\ngini = 0.47\nsamples = 12\nvalue = [8, 5]\nclass = o", fillcolor="#f5d0b5"] ;
105 -> 106 ;
107 [label="age <= 21.5\ngini = 0.49\nsamples = 6\nvalue = [4, 3]\nclass = o", fillcolor="#f8e0ce"] ;
106 -> 107 ;
108 [label="gini = 0.0\nsamples = 3\nvalue = [4, 0]\nclass = o", fillcolor="#e58139"] ;
107 -> 108 ;
109 [label="gini = 0.0\nsamples = 3\nvalue = [0, 3]\nclass = w", fillcolor="#399de5"] ;
107 -> 109 ;
110 [label="age <= 23.0\ngini = 0.44\nsamples = 6\nvalue = [4, 2]\nclass = o", fillcolor="#f2c09c"] ;
106 -> 110 ;
111 [label="age <= 17.0\ngini = 0.5\nsamples = 4\nvalue = [2, 2]\nclass = o", fillcolor="#ffffff"] ;
110 -> 111 ;
112 [label="gini = 0.0\nsamples = 1\nvalue = [1, 0]\nclass = o", fillcolor="#e58139"] ;
111 -> 112 ;
113 [label="age <= 20.0\ngini = 0.44\nsamples = 3\nvalue = [1, 2]\nclass = w", fillcolor="#9ccef2"] ;
111 -> 113 ;
114 [label="gini = 0.5\nsamples = 2\nvalue = [1, 1]\nclass = o", fillcolor="#ffffff"] ;
113 -> 114 ;
115 [label="gini = 0.0\nsamples = 1\nvalue = [0, 1]\nclass = w", fillcolor="#399de5"] ;
113 -> 115 ;
116 [label="gini = 0.0\nsamples = 2\nvalue = [2, 0]\nclass = o", fillcolor="#e58139"] ;
110 -> 116 ;
117 [label="gini = 0.0\nsamples = 1\nvalue = [1, 0]\nclass = o", fillcolor="#e58139"] ;
105 -> 117 ;
118 [label="region_Midwest <= 0.5\ngini = 0.23\nsamples = 19\nvalue = [26, 4]\nclass = o", fillcolor="#e99457"] ;
104 -> 118 ;
119 [label="region_Northeast <= 0.5\ngini = 0.22\nsamples = 15\nvalue = [21, 3]\nclass = o", fillcolor="#e99355"] ;
118 -> 119 ;
120 [label="age <= 17.0\ngini = 0.32\nsamples = 10\nvalue = [12, 3]\nclass = o", fillcolor="#eca06a"] ;
119 -> 120 ;
121 [label="gini = 0.0\nsamples = 1\nvalue = [0, 1]\nclass = w", fillcolor="#399de5"] ;
120 -> 121 ;
122 [label="age <= 18.5\ngini = 0.24\nsamples = 9\nvalue = [12, 2]\nclass = o", fillcolor="#e9965a"] ;
120 -> 122 ;
123 [label="gini = 0.41\nsamples = 3\nvalue = [5, 2]\nclass = o", fillcolor="#efb388"] ;
122 -> 123 ;
124 [label="gini = 0.0\nsamples = 6\nvalue = [7, 0]\nclass = o", fillcolor="#e58139"] ;
122 -> 124 ;
125 [label="gini = 0.0\nsamples = 5\nvalue = [9, 0]\nclass = o", fillcolor="#e58139"] ;
119 -> 125 ;
126 [label="age <= 24.5\ngini = 0.28\nsamples = 4\nvalue = [5, 1]\nclass = o", fillcolor="#ea9a61"] ;
118 -> 126 ;
127 [label="gini = 0.0\nsamples = 2\nvalue = [4, 0]\nclass = o", fillcolor="#e58139"] ;
126 -> 127 ;
128 [label="age <= 29.0\ngini = 0.5\nsamples = 2\nvalue = [1, 1]\nclass = o", fillcolor="#ffffff"] ;
126 -> 128 ;
129 [label="gini = 0.0\nsamples = 1\nvalue = [0, 1]\nclass = w", fillcolor="#399de5"] ;
128 -> 129 ;
130 [label="gini = 0.0\nsamples = 1\nvalue = [1, 0]\nclass = o", fillcolor="#e58139"] ;
128 -> 130 ;
131 [label="age <= 27.5\ngini = 0.06\nsamples = 78\nvalue = [126, 4]\nclass = o", fillcolor="#e6853f"] ;
5 -> 131 ;
132 [label="gender_Female <= 0.5\ngini = 0.04\nsamples = 65\nvalue = [107, 2]\nclass = o", fillcolor="#e5833d"] ;
131 -> 132 ;
133 [label="gini = 0.0\nsamples = 23\nvalue = [42, 0]\nclass = o", fillcolor="#e58139"] ;
132 -> 133 ;
134 [label="children_No <= 0.5\ngini = 0.06\nsamples = 42\nvalue = [65, 2]\nclass = o", fillcolor="#e6853f"] ;
132 -> 134 ;
135 [label="gini = 0.0\nsamples = 19\nvalue = [31, 0]\nclass = o", fillcolor="#e58139"] ;
134 -> 135 ;
136 [label="region_South <= 0.5\ngini = 0.1\nsamples = 23\nvalue = [34, 2]\nclass = o", fillcolor="#e78845"] ;
134 -> 136 ;
137 [label="region_Northeast <= 0.5\ngini = 0.12\nsamples = 11\nvalue = [15, 1]\nclass = o", fillcolor="#e78946"] ;
136 -> 137 ;
138 [label="gini = 0.0\nsamples = 6\nvalue = [9, 0]\nclass = o", fillcolor="#e58139"] ;
137 -> 138 ;
139 [label="age <= 21.5\ngini = 0.24\nsamples = 5\nvalue = [6, 1]\nclass = o", fillcolor="#e9965a"] ;
137 -> 139 ;
140 [label="gini = 0.0\nsamples = 2\nvalue = [2, 0]\nclass = o", fillcolor="#e58139"] ;
139 -> 140 ;
141 [label="age <= 22.5\ngini = 0.32\nsamples = 3\nvalue = [4, 1]\nclass = o", fillcolor="#eca06a"] ;
139 -> 141 ;
142 [label="gini = 0.38\nsamples = 2\nvalue = [3, 1]\nclass = o", fillcolor="#eeab7b"] ;
141 -> 142 ;
143 [label="gini = 0.0\nsamples = 1\nvalue = [1, 0]\nclass = o", fillcolor="#e58139"] ;
141 -> 143 ;
144 [label="age <= 20.0\ngini = 0.09\nsamples = 12\nvalue = [19, 1]\nclass = o", fillcolor="#e68843"] ;
136 -> 144 ;
145 [label="age <= 18.5\ngini = 0.18\nsamples = 6\nvalue = [9, 1]\nclass = o", fillcolor="#e88f4f"] ;
144 -> 145 ;
146 [label="gini = 0.0\nsamples = 4\nvalue = [8, 0]\nclass = o", fillcolor="#e58139"] ;
145 -> 146 ;
147 [label="gini = 0.5\nsamples = 2\nvalue = [1, 1]\nclass = o", fillcolor="#ffffff"] ;
145 -> 147 ;
148 [label="gini = 0.0\nsamples = 6\nvalue = [10, 0]\nclass = o", fillcolor="#e58139"] ;
144 -> 148 ;
149 [label="children_No <= 0.5\ngini = 0.17\nsamples = 13\nvalue = [19, 2]\nclass = o", fillcolor="#e88e4e"] ;
131 -> 149 ;
150 [label="gini = 0.0\nsamples = 7\nvalue = [9, 0]\nclass = o", fillcolor="#e58139"] ;
149 -> 150 ;
151 [label="region_Northeast <= 0.5\ngini = 0.28\nsamples = 6\nvalue = [10, 2]\nclass = o", fillcolor="#ea9a61"] ;
149 -> 151 ;
152 [label="age <= 29.0\ngini = 0.35\nsamples = 5\nvalue = [7, 2]\nclass = o", fillcolor="#eca572"] ;
151 -> 152 ;
153 [label="gender_Female <= 0.5\ngini = 0.44\nsamples = 2\nvalue = [1, 2]\nclass = w", fillcolor="#9ccef2"] ;
152 -> 153 ;
154 [label="gini = 0.0\nsamples = 1\nvalue = [1, 0]\nclass = o", fillcolor="#e58139"] ;
153 -> 154 ;
155 [label="gini = 0.0\nsamples = 1\nvalue = [0, 2]\nclass = w", fillcolor="#399de5"] ;
153 -> 155 ;
156 [label="gini = 0.0\nsamples = 3\nvalue = [6, 0]\nclass = o", fillcolor="#e58139"] ;
152 -> 156 ;
157 [label="gini = 0.0\nsamples = 1\nvalue = [3, 0]\nclass = o", fillcolor="#e58139"] ;
151 -> 157 ;
158 [label="children_Yes <= 0.5\ngini = 0.36\nsamples = 93\nvalue = [110, 34]\nclass = o", fillcolor="#eda876"] ;
4 -> 158 ;
159 [label="age <= 43.5\ngini = 0.21\nsamples = 21\nvalue = [29, 4]\nclass = o", fillcolor="#e99254"] ;
158 -> 159 ;
160 [label="age <= 37.5\ngini = 0.08\nsamples = 17\nvalue = [22, 1]\nclass = o", fillcolor="#e68742"] ;
159 -> 160 ;
161 [label="income_cat_$100,000 to $299,999 <= 0.5\ngini = 0.17\nsamples = 7\nvalue = [10, 1]\nclass = o", fillcolor="#e88e4d"] ;
160 -> 161 ;
162 [label="gini = 0.0\nsamples = 5\nvalue = [9, 0]\nclass = o", fillcolor="#e58139"] ;
161 -> 162 ;
163 [label="age <= 35.5\ngini = 0.5\nsamples = 2\nvalue = [1, 1]\nclass = o", fillcolor="#ffffff"] ;
161 -> 163 ;
164 [label="gini = 0.0\nsamples = 1\nvalue = [1, 0]\nclass = o", fillcolor="#e58139"] ;
163 -> 164 ;
165 [label="gini = 0.0\nsamples = 1\nvalue = [0, 1]\nclass = w", fillcolor="#399de5"] ;
163 -> 165 ;
166 [label="gini = 0.0\nsamples = 10\nvalue = [12, 0]\nclass = o", fillcolor="#e58139"] ;
160 -> 166 ;
167 [label="region_Midwest <= 0.5\ngini = 0.42\nsamples = 4\nvalue = [7, 3]\nclass = o", fillcolor="#f0b78e"] ;
159 -> 167 ;
168 [label="gini = 0.0\nsamples = 3\nvalue = [7, 0]\nclass = o", fillcolor="#e58139"] ;
167 -> 168 ;
169 [label="gini = 0.0\nsamples = 1\nvalue = [0, 3]\nclass = w", fillcolor="#399de5"] ;
167 -> 169 ;
170 [label="income_cat_$100,000 to $299,999 <= 0.5\ngini = 0.39\nsamples = 72\nvalue = [81, 30]\nclass = o", fillcolor="#efb082"] ;
158 -> 170 ;
171 [label="gender_Male <= 0.5\ngini = 0.27\nsamples = 39\nvalue = [51, 10]\nclass = o", fillcolor="#ea9a60"] ;
170 -> 171 ;
172 [label="age <= 32.5\ngini = 0.38\nsamples = 23\nvalue = [27, 9]\nclass = o", fillcolor="#eeab7b"] ;
171 -> 172 ;
173 [label="region_South <= 0.5\ngini = 0.28\nsamples = 5\nvalue = [1, 5]\nclass = w", fillcolor="#61b1ea"] ;
172 -> 173 ;
174 [label="income_cat_Less than $29,999 <= 0.5\ngini = 0.44\nsamples = 2\nvalue = [1, 2]\nclass = w", fillcolor="#9ccef2"] ;
173 -> 174 ;
175 [label="gini = 0.0\nsamples = 1\nvalue = [0, 2]\nclass = w", fillcolor="#399de5"] ;
174 -> 175 ;
176 [label="gini = 0.0\nsamples = 1\nvalue = [1, 0]\nclass = o", fillcolor="#e58139"] ;
174 -> 176 ;
177 [label="gini = 0.0\nsamples = 3\nvalue = [0, 3]\nclass = w", fillcolor="#399de5"] ;
173 -> 177 ;
178 [label="region_South <= 0.5\ngini = 0.23\nsamples = 18\nvalue = [26, 4]\nclass = o", fillcolor="#e99457"] ;
172 -> 178 ;
179 [label="age <= 41.5\ngini = 0.41\nsamples = 10\nvalue = [10, 4]\nclass = o", fillcolor="#efb388"] ;
178 -> 179 ;
180 [label="income_cat_Do not know <= 0.5\ngini = 0.48\nsamples = 7\nvalue = [6, 4]\nclass = o", fillcolor="#f6d5bd"] ;
179 -> 180 ;
181 [label="region_Midwest <= 0.5\ngini = 0.49\nsamples = 6\nvalue = [3, 4]\nclass = w", fillcolor="#cee6f8"] ;
180 -> 181 ;
182 [label="income_cat_Less than $29,999 <= 0.5\ngini = 0.48\nsamples = 4\nvalue = [2, 3]\nclass = w", fillcolor="#bddef6"] ;
181 -> 182 ;
183 [label="gini = 0.0\nsamples = 1\nvalue = [0, 1]\nclass = w", fillcolor="#399de5"] ;
182 -> 183 ;
184 [label="age <= 35.0\ngini = 0.5\nsamples = 3\nvalue = [2, 2]\nclass = o", fillcolor="#ffffff"] ;
182 -> 184 ;
185 [label="gini = 0.0\nsamples = 1\nvalue = [1, 0]\nclass = o", fillcolor="#e58139"] ;
184 -> 185 ;
186 [label="age <= 37.5\ngini = 0.44\nsamples = 2\nvalue = [1, 2]\nclass = w", fillcolor="#9ccef2"] ;
184 -> 186 ;
187 [label="gini = 0.0\nsamples = 1\nvalue = [0, 2]\nclass = w", fillcolor="#399de5"] ;
186 -> 187 ;
188 [label="gini = 0.0\nsamples = 1\nvalue = [1, 0]\nclass = o", fillcolor="#e58139"] ;
186 -> 188 ;
189 [label="age <= 39.0\ngini = 0.5\nsamples = 2\nvalue = [1, 1]\nclass = o", fillcolor="#ffffff"] ;
181 -> 189 ;
190 [label="gini = 0.0\nsamples = 1\nvalue = [1, 0]\nclass = o", fillcolor="#e58139"] ;
189 -> 190 ;
191 [label="gini = 0.0\nsamples = 1\nvalue = [0, 1]\nclass = w", fillcolor="#399de5"] ;
189 -> 191 ;
192 [label="gini = 0.0\nsamples = 1\nvalue = [3, 0]\nclass = o", fillcolor="#e58139"] ;
180 -> 192 ;
193 [label="gini = 0.0\nsamples = 3\nvalue = [4, 0]\nclass = o", fillcolor="#e58139"] ;
179 -> 193 ;
194 [label="gini = 0.0\nsamples = 8\nvalue = [16, 0]\nclass = o", fillcolor="#e58139"] ;
178 -> 194 ;
195 [label="income_cat_$30,000 to $49,999 <= 0.5\ngini = 0.08\nsamples = 16\nvalue = [24, 1]\nclass = o", fillcolor="#e68641"] ;
171 -> 195 ;
196 [label="income_cat_Less than $29,999 <= 0.5\ngini = 0.17\nsamples = 7\nvalue = [10, 1]\nclass = o", fillcolor="#e88e4d"] ;
195 -> 196 ;
197 [label="gini = 0.0\nsamples = 1\nvalue = [0, 1]\nclass = w", fillcolor="#399de5"] ;
196 -> 197 ;
198 [label="gini = 0.0\nsamples = 6\nvalue = [10, 0]\nclass = o", fillcolor="#e58139"] ;
196 -> 198 ;
199 [label="gini = 0.0\nsamples = 9\nvalue = [14, 0]\nclass = o", fillcolor="#e58139"] ;
195 -> 199 ;
200 [label="gender_Male <= 0.5\ngini = 0.48\nsamples = 33\nvalue = [30, 20]\nclass = o", fillcolor="#f6d5bd"] ;
170 -> 200 ;
201 [label="region_Northeast <= 0.5\ngini = 0.5\nsamples = 15\nvalue = [13, 11]\nclass = o", fillcolor="#fbece1"] ;
200 -> 201 ;
202 [label="region_Midwest <= 0.5\ngini = 0.43\nsamples = 11\nvalue = [13, 6]\nclass = o", fillcolor="#f1bb94"] ;
201 -> 202 ;
203 [label="age <= 33.0\ngini = 0.28\nsamples = 6\nvalue = [10, 2]\nclass = o", fillcolor="#ea9a61"] ;
202 -> 203 ;
204 [label="age <= 31.5\ngini = 0.44\nsamples = 2\nvalue = [1, 2]\nclass = w", fillcolor="#9ccef2"] ;
203 -> 204 ;
205 [label="gini = 0.0\nsamples = 1\nvalue = [1, 0]\nclass = o", fillcolor="#e58139"] ;
204 -> 205 ;
206 [label="gini = 0.0\nsamples = 1\nvalue = [0, 2]\nclass = w", fillcolor="#399de5"] ;
204 -> 206 ;
207 [label="gini = 0.0\nsamples = 4\nvalue = [9, 0]\nclass = o", fillcolor="#e58139"] ;
203 -> 207 ;
208 [label="age <= 36.5\ngini = 0.49\nsamples = 5\nvalue = [3, 4]\nclass = w", fillcolor="#cee6f8"] ;
202 -> 208 ;
209 [label="age <= 33.5\ngini = 0.32\nsamples = 4\nvalue = [1, 4]\nclass = w", fillcolor="#6ab6ec"] ;
208 -> 209 ;
210 [label="age <= 32.5\ngini = 0.44\nsamples = 3\nvalue = [1, 2]\nclass = w", fillcolor="#9ccef2"] ;
209 -> 210 ;
211 [label="gini = 0.0\nsamples = 1\nvalue = [0, 1]\nclass = w", fillcolor="#399de5"] ;
210 -> 211 ;
212 [label="gini = 0.5\nsamples = 2\nvalue = [1, 1]\nclass = o", fillcolor="#ffffff"] ;
210 -> 212 ;
213 [label="gini = 0.0\nsamples = 1\nvalue = [0, 2]\nclass = w", fillcolor="#399de5"] ;
209 -> 213 ;
214 [label="gini = 0.0\nsamples = 1\nvalue = [2, 0]\nclass = o", fillcolor="#e58139"] ;
208 -> 214 ;
215 [label="gini = 0.0\nsamples = 4\nvalue = [0, 5]\nclass = w", fillcolor="#399de5"] ;
201 -> 215 ;
216 [label="region_Midwest <= 0.5\ngini = 0.45\nsamples = 18\nvalue = [17, 9]\nclass = o", fillcolor="#f3c4a2"] ;
200 -> 216 ;
217 [label="region_Northeast <= 0.5\ngini = 0.48\nsamples = 13\nvalue = [12, 8]\nclass = o", fillcolor="#f6d5bd"] ;
216 -> 217 ;
218 [label="age <= 35.5\ngini = 0.22\nsamples = 6\nvalue = [7, 1]\nclass = o", fillcolor="#e99355"] ;
217 -> 218 ;
219 [label="gini = 0.0\nsamples = 1\nvalue = [3, 0]\nclass = o", fillcolor="#e58139"] ;
218 -> 219 ;
220 [label="age <= 37.0\ngini = 0.32\nsamples = 5\nvalue = [4, 1]\nclass = o", fillcolor="#eca06a"] ;
218 -> 220 ;
221 [label="gini = 0.5\nsamples = 2\nvalue = [1, 1]\nclass = o", fillcolor="#ffffff"] ;
220 -> 221 ;
222 [label="gini = 0.0\nsamples = 3\nvalue = [3, 0]\nclass = o", fillcolor="#e58139"] ;
220 -> 222 ;
223 [label="age <= 34.5\ngini = 0.49\nsamples = 7\nvalue = [5, 7]\nclass = w", fillcolor="#c6e3f8"] ;
217 -> 223 ;
224 [label="gini = 0.0\nsamples = 2\nvalue = [4, 0]\nclass = o", fillcolor="#e58139"] ;
223 -> 224 ;
225 [label="age <= 35.5\ngini = 0.22\nsamples = 5\nvalue = [1, 7]\nclass = w", fillcolor="#55abe9"] ;
223 -> 225 ;
226 [label="gini = 0.44\nsamples = 2\nvalue = [1, 2]\nclass = w", fillcolor="#9ccef2"] ;
225 -> 226 ;
227 [label="gini = 0.0\nsamples = 3\nvalue = [0, 5]\nclass = w", fillcolor="#399de5"] ;
225 -> 227 ;
228 [label="age <= 33.5\ngini = 0.28\nsamples = 5\nvalue = [5, 1]\nclass = o", fillcolor="#ea9a61"] ;
216 -> 228 ;
229 [label="gini = 0.0\nsamples = 1\nvalue = [0, 1]\nclass = w", fillcolor="#399de5"] ;
228 -> 229 ;
230 [label="gini = 0.0\nsamples = 4\nvalue = [5, 0]\nclass = o", fillcolor="#e58139"] ;
228 -> 230 ;
231 [label="income_cat_Do not know <= 0.5\ngini = 0.32\nsamples = 126\nvalue = [162, 41]\nclass = o", fillcolor="#eca16b"] ;
3 -> 231 ;
232 [label="income_cat_Less than $29,999 <= 0.5\ngini = 0.33\nsamples = 116\nvalue = [145, 38]\nclass = o", fillcolor="#eca26d"] ;
231 -> 232 ;
233 [label="gender_Male <= 0.5\ngini = 0.34\nsamples = 78\nvalue = [93, 26]\nclass = o", fillcolor="#eca470"] ;
232 -> 233 ;
234 [label="children_Yes <= 0.5\ngini = 0.17\nsamples = 29\nvalue = [38, 4]\nclass = o", fillcolor="#e88e4e"] ;
233 -> 234 ;
235 [label="gini = 0.0\nsamples = 13\nvalue = [19, 0]\nclass = o", fillcolor="#e58139"] ;
234 -> 235 ;
236 [label="income_cat_$100,000 to $299,999 <= 0.5\ngini = 0.29\nsamples = 16\nvalue = [19, 4]\nclass = o", fillcolor="#ea9c63"] ;
234 -> 236 ;
237 [label="age <= 19.0\ngini = 0.42\nsamples = 8\nvalue = [7, 3]\nclass = o", fillcolor="#f0b78e"] ;
236 -> 237 ;
238 [label="gini = 0.0\nsamples = 1\nvalue = [0, 1]\nclass = w", fillcolor="#399de5"] ;
237 -> 238 ;
239 [label="age <= 25.0\ngini = 0.35\nsamples = 7\nvalue = [7, 2]\nclass = o", fillcolor="#eca572"] ;
237 -> 239 ;
240 [label="gini = 0.0\nsamples = 2\nvalue = [3, 0]\nclass = o", fillcolor="#e58139"] ;
239 -> 240 ;
241 [label="age <= 28.5\ngini = 0.44\nsamples = 5\nvalue = [4, 2]\nclass = o", fillcolor="#f2c09c"] ;
239 -> 241 ;
242 [label="age <= 26.5\ngini = 0.44\nsamples = 3\nvalue = [1, 2]\nclass = w", fillcolor="#9ccef2"] ;
241 -> 242 ;
243 [label="gini = 0.0\nsamples = 1\nvalue = [0, 1]\nclass = w", fillcolor="#399de5"] ;
242 -> 243 ;
244 [label="gini = 0.5\nsamples = 2\nvalue = [1, 1]\nclass = o", fillcolor="#ffffff"] ;
242 -> 244 ;
245 [label="gini = 0.0\nsamples = 2\nvalue = [3, 0]\nclass = o", fillcolor="#e58139"] ;
241 -> 245 ;
246 [label="age <= 40.5\ngini = 0.14\nsamples = 8\nvalue = [12, 1]\nclass = o", fillcolor="#e78c49"] ;
236 -> 246 ;
247 [label="gini = 0.0\nsamples = 7\nvalue = [12, 0]\nclass = o", fillcolor="#e58139"] ;
246 -> 247 ;
248 [label="gini = 0.0\nsamples = 1\nvalue = [0, 1]\nclass = w", fillcolor="#399de5"] ;
246 -> 248 ;
249 [label="children_No <= 0.5\ngini = 0.41\nsamples = 49\nvalue = [55, 22]\nclass = o", fillcolor="#efb388"] ;
233 -> 249 ;
250 [label="income_cat_$30,000 to $49,999 <= 0.5\ngini = 0.41\nsamples = 30\nvalue = [35, 14]\nclass = o", fillcolor="#efb388"] ;
249 -> 250 ;
251 [label="age <= 31.0\ngini = 0.39\nsamples = 24\nvalue = [28, 10]\nclass = o", fillcolor="#eeae80"] ;
250 -> 251 ;
252 [label="gini = 0.0\nsamples = 7\nvalue = [12, 0]\nclass = o", fillcolor="#e58139"] ;
251 -> 252 ;
253 [label="age <= 34.5\ngini = 0.47\nsamples = 17\nvalue = [16, 10]\nclass = o", fillcolor="#f5d0b5"] ;
251 -> 253 ;
254 [label="gini = 0.0\nsamples = 2\nvalue = [0, 2]\nclass = w", fillcolor="#399de5"] ;
253 -> 254 ;
255 [label="age <= 43.5\ngini = 0.44\nsamples = 15\nvalue = [16, 8]\nclass = o", fillcolor="#f2c09c"] ;
253 -> 255 ;
256 [label="age <= 41.5\ngini = 0.46\nsamples = 14\nvalue = [14, 8]\nclass = o", fillcolor="#f4c9aa"] ;
255 -> 256 ;
257 [label="age <= 39.0\ngini = 0.42\nsamples = 13\nvalue = [14, 6]\nclass = o", fillcolor="#f0b78e"] ;
256 -> 257 ;
258 [label="age <= 35.5\ngini = 0.46\nsamples = 11\nvalue = [11, 6]\nclass = o", fillcolor="#f3c6a5"] ;
257 -> 258 ;
259 [label="gini = 0.5\nsamples = 3\nvalue = [2, 2]\nclass = o", fillcolor="#ffffff"] ;
258 -> 259 ;
260 [label="age <= 36.5\ngini = 0.43\nsamples = 8\nvalue = [9, 4]\nclass = o", fillcolor="#f1b991"] ;
258 -> 260 ;
261 [label="gini = 0.32\nsamples = 3\nvalue = [4, 1]\nclass = o", fillcolor="#eca06a"] ;
260 -> 261 ;
262 [label="age <= 37.5\ngini = 0.47\nsamples = 5\nvalue = [5, 3]\nclass = o", fillcolor="#f5cdb0"] ;
260 -> 262 ;
263 [label="gini = 0.5\nsamples = 2\nvalue = [1, 1]\nclass = o", fillcolor="#ffffff"] ;
262 -> 263 ;
264 [label="gini = 0.44\nsamples = 3\nvalue = [4, 2]\nclass = o", fillcolor="#f2c09c"] ;
262 -> 264 ;
265 [label="gini = 0.0\nsamples = 2\nvalue = [3, 0]\nclass = o", fillcolor="#e58139"] ;
257 -> 265 ;
266 [label="gini = 0.0\nsamples = 1\nvalue = [0, 2]\nclass = w", fillcolor="#399de5"] ;
256 -> 266 ;
267 [label="gini = 0.0\nsamples = 1\nvalue = [2, 0]\nclass = o", fillcolor="#e58139"] ;
255 -> 267 ;
268 [label="age <= 29.0\ngini = 0.46\nsamples = 6\nvalue = [7, 4]\nclass = o", fillcolor="#f4c9aa"] ;
250 -> 268 ;
269 [label="age <= 23.5\ngini = 0.32\nsamples = 3\nvalue = [1, 4]\nclass = w", fillcolor="#6ab6ec"] ;
268 -> 269 ;
270 [label="gini = 0.38\nsamples = 2\nvalue = [1, 3]\nclass = w", fillcolor="#7bbeee"] ;
269 -> 270 ;
271 [label="gini = 0.0\nsamples = 1\nvalue = [0, 1]\nclass = w", fillcolor="#399de5"] ;
269 -> 271 ;
272 [label="gini = 0.0\nsamples = 3\nvalue = [6, 0]\nclass = o", fillcolor="#e58139"] ;
268 -> 272 ;
273 [label="age <= 23.5\ngini = 0.41\nsamples = 19\nvalue = [20, 8]\nclass = o", fillcolor="#efb388"] ;
249 -> 273 ;
274 [label="income_cat_$30,000 to $49,999 <= 0.5\ngini = 0.46\nsamples = 13\nvalue = [14, 8]\nclass = o", fillcolor="#f4c9aa"] ;
273 -> 274 ;
275 [label="gini = 0.0\nsamples = 3\nvalue = [0, 5]\nclass = w", fillcolor="#399de5"] ;
274 -> 275 ;
276 [label="age <= 20.5\ngini = 0.29\nsamples = 10\nvalue = [14, 3]\nclass = o", fillcolor="#eb9c63"] ;
274 -> 276 ;
277 [label="gini = 0.0\nsamples = 7\nvalue = [11, 0]\nclass = o", fillcolor="#e58139"] ;
276 -> 277 ;
278 [label="age <= 22.0\ngini = 0.5\nsamples = 3\nvalue = [3, 3]\nclass = o", fillcolor="#ffffff"] ;
276 -> 278 ;
279 [label="gini = 0.0\nsamples = 1\nvalue = [0, 2]\nclass = w", fillcolor="#399de5"] ;
278 -> 279 ;
280 [label="gini = 0.38\nsamples = 2\nvalue = [3, 1]\nclass = o", fillcolor="#eeab7b"] ;
278 -> 280 ;
281 [label="gini = 0.0\nsamples = 6\nvalue = [6, 0]\nclass = o", fillcolor="#e58139"] ;
273 -> 281 ;
282 [label="gender_Male <= 0.5\ngini = 0.3\nsamples = 38\nvalue = [52, 12]\nclass = o", fillcolor="#eb9e67"] ;
232 -> 282 ;
283 [label="children_Yes <= 0.5\ngini = 0.28\nsamples = 22\nvalue = [30, 6]\nclass = o", fillcolor="#ea9a61"] ;
282 -> 283 ;
284 [label="age <= 18.5\ngini = 0.35\nsamples = 10\nvalue = [14, 4]\nclass = o", fillcolor="#eca572"] ;
283 -> 284 ;
285 [label="gini = 0.0\nsamples = 1\nvalue = [3, 0]\nclass = o", fillcolor="#e58139"] ;
284 -> 285 ;
286 [label="age <= 29.0\ngini = 0.39\nsamples = 9\nvalue = [11, 4]\nclass = o", fillcolor="#eeaf81"] ;
284 -> 286 ;
287 [label="age <= 20.5\ngini = 0.43\nsamples = 7\nvalue = [9, 4]\nclass = o", fillcolor="#f1b991"] ;
286 -> 287 ;
288 [label="age <= 19.5\ngini = 0.35\nsamples = 5\nvalue = [7, 2]\nclass = o", fillcolor="#eca572"] ;
287 -> 288 ;
289 [label="gini = 0.38\nsamples = 4\nvalue = [6, 2]\nclass = o", fillcolor="#eeab7b"] ;
288 -> 289 ;
290 [label="gini = 0.0\nsamples = 1\nvalue = [1, 0]\nclass = o", fillcolor="#e58139"] ;
288 -> 290 ;
291 [label="gini = 0.5\nsamples = 2\nvalue = [2, 2]\nclass = o", fillcolor="#ffffff"] ;
287 -> 291 ;
292 [label="gini = 0.0\nsamples = 2\nvalue = [2, 0]\nclass = o", fillcolor="#e58139"] ;
286 -> 292 ;
293 [label="age <= 21.5\ngini = 0.2\nsamples = 12\nvalue = [16, 2]\nclass = o", fillcolor="#e89152"] ;
283 -> 293 ;
294 [label="age <= 19.5\ngini = 0.35\nsamples = 5\nvalue = [7, 2]\nclass = o", fillcolor="#eca572"] ;
293 -> 294 ;
295 [label="gini = 0.0\nsamples = 3\nvalue = [4, 0]\nclass = o", fillcolor="#e58139"] ;
294 -> 295 ;
296 [label="gini = 0.48\nsamples = 2\nvalue = [3, 2]\nclass = o", fillcolor="#f6d5bd"] ;
294 -> 296 ;
297 [label="gini = 0.0\nsamples = 7\nvalue = [9, 0]\nclass = o", fillcolor="#e58139"] ;
293 -> 297 ;
298 [label="children_Yes <= 0.5\ngini = 0.34\nsamples = 16\nvalue = [22, 6]\nclass = o", fillcolor="#eca36f"] ;
282 -> 298 ;
299 [label="age <= 18.5\ngini = 0.31\nsamples = 11\nvalue = [17, 4]\nclass = o", fillcolor="#eb9f68"] ;
298 -> 299 ;
300 [label="age <= 17.0\ngini = 0.5\nsamples = 4\nvalue = [4, 4]\nclass = o", fillcolor="#ffffff"] ;
299 -> 300 ;
301 [label="gini = 0.0\nsamples = 1\nvalue = [0, 1]\nclass = w", fillcolor="#399de5"] ;
300 -> 301 ;
302 [label="gini = 0.49\nsamples = 3\nvalue = [4, 3]\nclass = o", fillcolor="#f8e0ce"] ;
300 -> 302 ;
303 [label="gini = 0.0\nsamples = 7\nvalue = [13, 0]\nclass = o", fillcolor="#e58139"] ;
299 -> 303 ;
304 [label="age <= 34.0\ngini = 0.41\nsamples = 5\nvalue = [5, 2]\nclass = o", fillcolor="#efb388"] ;
298 -> 304 ;
305 [label="gini = 0.0\nsamples = 4\nvalue = [5, 0]\nclass = o", fillcolor="#e58139"] ;
304 -> 305 ;
306 [label="gini = 0.0\nsamples = 1\nvalue = [0, 2]\nclass = w", fillcolor="#399de5"] ;
304 -> 306 ;
307 [label="gender_Male <= 0.5\ngini = 0.26\nsamples = 10\nvalue = [17, 3]\nclass = o", fillcolor="#ea975c"] ;
231 -> 307 ;
308 [label="age <= 25.0\ngini = 0.44\nsamples = 4\nvalue = [6, 3]\nclass = o", fillcolor="#f2c09c"] ;
307 -> 308 ;
309 [label="gini = 0.0\nsamples = 3\nvalue = [6, 0]\nclass = o", fillcolor="#e58139"] ;
308 -> 309 ;
310 [label="gini = 0.0\nsamples = 1\nvalue = [0, 3]\nclass = w", fillcolor="#399de5"] ;
308 -> 310 ;
311 [label="gini = 0.0\nsamples = 6\nvalue = [11, 0]\nclass = o", fillcolor="#e58139"] ;
307 -> 311 ;
312 [label="age <= 36.5\ngini = 0.5\nsamples = 9\nvalue = [10, 11]\nclass = w", fillcolor="#edf6fd"] ;
2 -> 312 ;
313 [label="children_Yes <= 0.5\ngini = 0.48\nsamples = 8\nvalue = [7, 11]\nclass = w", fillcolor="#b7dbf6"] ;
312 -> 313 ;
314 [label="age <= 24.0\ngini = 0.24\nsamples = 3\nvalue = [1, 6]\nclass = w", fillcolor="#5aade9"] ;
313 -> 314 ;
315 [label="gini = 0.0\nsamples = 2\nvalue = [0, 6]\nclass = w", fillcolor="#399de5"] ;
314 -> 315 ;
316 [label="gini = 0.0\nsamples = 1\nvalue = [1, 0]\nclass = o", fillcolor="#e58139"] ;
314 -> 316 ;
317 [label="gender_Female <= 0.5\ngini = 0.5\nsamples = 5\nvalue = [6, 5]\nclass = o", fillcolor="#fbeade"] ;
313 -> 317 ;
318 [label="gini = 0.0\nsamples = 2\nvalue = [3, 0]\nclass = o", fillcolor="#e58139"] ;
317 -> 318 ;
319 [label="age <= 33.5\ngini = 0.47\nsamples = 3\nvalue = [3, 5]\nclass = w", fillcolor="#b0d8f5"] ;
317 -> 319 ;
320 [label="gini = 0.0\nsamples = 1\nvalue = [0, 2]\nclass = w", fillcolor="#399de5"] ;
319 -> 320 ;
321 [label="gini = 0.5\nsamples = 2\nvalue = [3, 3]\nclass = o", fillcolor="#ffffff"] ;
319 -> 321 ;
322 [label="gini = 0.0\nsamples = 1\nvalue = [3, 0]\nclass = o", fillcolor="#e58139"] ;
312 -> 322 ;
323 [label="region_South <= 0.5\ngini = 0.42\nsamples = 255\nvalue = [283, 120]\nclass = o", fillcolor="#f0b68d"] ;
1 -> 323 ;
324 [label="children_No <= 0.5\ngini = 0.45\nsamples = 167\nvalue = [174, 91]\nclass = o", fillcolor="#f3c3a1"] ;
323 -> 324 ;
325 [label="region_West <= 0.5\ngini = 0.48\nsamples = 114\nvalue = [111, 71]\nclass = o", fillcolor="#f6d2b8"] ;
324 -> 325 ;
326 [label="region_Northeast <= 0.5\ngini = 0.45\nsamples = 59\nvalue = [63, 33]\nclass = o", fillcolor="#f3c3a1"] ;
325 -> 326 ;
327 [label="gender_Female <= 0.5\ngini = 0.42\nsamples = 24\nvalue = [23, 10]\nclass = o", fillcolor="#f0b88f"] ;
326 -> 327 ;
328 [label="age <= 17.5\ngini = 0.43\nsamples = 12\nvalue = [11, 5]\nclass = o", fillcolor="#f1ba93"] ;
327 -> 328 ;
329 [label="gini = 0.44\nsamples = 2\nvalue = [1, 2]\nclass = w", fillcolor="#9ccef2"] ;
328 -> 329 ;
330 [label="age <= 31.0\ngini = 0.36\nsamples = 10\nvalue = [10, 3]\nclass = o", fillcolor="#eda774"] ;
328 -> 330 ;
331 [label="gini = 0.0\nsamples = 5\nvalue = [7, 0]\nclass = o", fillcolor="#e58139"] ;
330 -> 331 ;
332 [label="age <= 36.5\ngini = 0.5\nsamples = 5\nvalue = [3, 3]\nclass = o", fillcolor="#ffffff"] ;
330 -> 332 ;
333 [label="age <= 33.0\ngini = 0.38\nsamples = 3\nvalue = [1, 3]\nclass = w", fillcolor="#7bbeee"] ;
332 -> 333 ;
334 [label="gini = 0.5\nsamples = 2\nvalue = [1, 1]\nclass = o", fillcolor="#ffffff"] ;
333 -> 334 ;
335 [label="gini = 0.0\nsamples = 1\nvalue = [0, 2]\nclass = w", fillcolor="#399de5"] ;
333 -> 335 ;
336 [label="gini = 0.0\nsamples = 2\nvalue = [2, 0]\nclass = o", fillcolor="#e58139"] ;
332 -> 336 ;
337 [label="age <= 31.0\ngini = 0.42\nsamples = 12\nvalue = [12, 5]\nclass = o", fillcolor="#f0b58b"] ;
327 -> 337 ;
338 [label="age <= 27.5\ngini = 0.5\nsamples = 4\nvalue = [2, 2]\nclass = o", fillcolor="#ffffff"] ;
337 -> 338 ;
339 [label="gini = 0.0\nsamples = 2\nvalue = [2, 0]\nclass = o", fillcolor="#e58139"] ;
338 -> 339 ;
340 [label="gini = 0.0\nsamples = 2\nvalue = [0, 2]\nclass = w", fillcolor="#399de5"] ;
338 -> 340 ;
341 [label="age <= 40.5\ngini = 0.36\nsamples = 8\nvalue = [10, 3]\nclass = o", fillcolor="#eda774"] ;
337 -> 341 ;
342 [label="age <= 36.0\ngini = 0.2\nsamples = 6\nvalue = [8, 1]\nclass = o", fillcolor="#e89152"] ;
341 -> 342 ;
343 [label="gini = 0.0\nsamples = 3\nvalue = [4, 0]\nclass = o", fillcolor="#e58139"] ;
342 -> 343 ;
344 [label="age <= 37.5\ngini = 0.32\nsamples = 3\nvalue = [4, 1]\nclass = o", fillcolor="#eca06a"] ;
342 -> 344 ;
345 [label="gini = 0.0\nsamples = 1\nvalue = [0, 1]\nclass = w", fillcolor="#399de5"] ;
344 -> 345 ;
346 [label="gini = 0.0\nsamples = 2\nvalue = [4, 0]\nclass = o", fillcolor="#e58139"] ;
344 -> 346 ;
347 [label="gini = 0.5\nsamples = 2\nvalue = [2, 2]\nclass = o", fillcolor="#ffffff"] ;
341 -> 347 ;
348 [label="gender_Male <= 0.5\ngini = 0.46\nsamples = 35\nvalue = [40, 23]\nclass = o", fillcolor="#f4c9ab"] ;
326 -> 348 ;
349 [label="age <= 16.5\ngini = 0.17\nsamples = 17\nvalue = [28, 3]\nclass = o", fillcolor="#e88e4e"] ;
348 -> 349 ;
350 [label="gini = 0.0\nsamples = 1\nvalue = [0, 1]\nclass = w", fillcolor="#399de5"] ;
349 -> 350 ;
351 [label="age <= 33.5\ngini = 0.12\nsamples = 16\nvalue = [28, 2]\nclass = o", fillcolor="#e78a47"] ;
349 -> 351 ;
352 [label="age <= 31.5\ngini = 0.2\nsamples = 11\nvalue = [16, 2]\nclass = o", fillcolor="#e89152"] ;
351 -> 352 ;
353 [label="age <= 27.0\ngini = 0.12\nsamples = 9\nvalue = [15, 1]\nclass = o", fillcolor="#e78946"] ;
352 -> 353 ;
354 [label="age <= 25.5\ngini = 0.28\nsamples = 4\nvalue = [5, 1]\nclass = o", fillcolor="#ea9a61"] ;
353 -> 354 ;
355 [label="gini = 0.0\nsamples = 3\nvalue = [5, 0]\nclass = o", fillcolor="#e58139"] ;
354 -> 355 ;
356 [label="gini = 0.0\nsamples = 1\nvalue = [0, 1]\nclass = w", fillcolor="#399de5"] ;
354 -> 356 ;
357 [label="gini = 0.0\nsamples = 5\nvalue = [10, 0]\nclass = o", fillcolor="#e58139"] ;
353 -> 357 ;
358 [label="gini = 0.5\nsamples = 2\nvalue = [1, 1]\nclass = o", fillcolor="#ffffff"] ;
352 -> 358 ;
359 [label="gini = 0.0\nsamples = 5\nvalue = [12, 0]\nclass = o", fillcolor="#e58139"] ;
351 -> 359 ;
360 [label="age <= 28.0\ngini = 0.47\nsamples = 18\nvalue = [12, 20]\nclass = w", fillcolor="#b0d8f5"] ;
348 -> 360 ;
361 [label="age <= 25.5\ngini = 0.42\nsamples = 6\nvalue = [7, 3]\nclass = o", fillcolor="#f0b78e"] ;
360 -> 361 ;
362 [label="age <= 23.0\ngini = 0.5\nsamples = 5\nvalue = [3, 3]\nclass = o", fillcolor="#ffffff"] ;
361 -> 362 ;
363 [label="gini = 0.0\nsamples = 1\nvalue = [1, 0]\nclass = o", fillcolor="#e58139"] ;
362 -> 363 ;
364 [label="gini = 0.48\nsamples = 4\nvalue = [2, 3]\nclass = w", fillcolor="#bddef6"] ;
362 -> 364 ;
365 [label="gini = 0.0\nsamples = 1\nvalue = [4, 0]\nclass = o", fillcolor="#e58139"] ;
361 -> 365 ;
366 [label="age <= 34.0\ngini = 0.35\nsamples = 12\nvalue = [5, 17]\nclass = w", fillcolor="#73baed"] ;
360 -> 366 ;
367 [label="gini = 0.0\nsamples = 3\nvalue = [0, 5]\nclass = w", fillcolor="#399de5"] ;
366 -> 367 ;
368 [label="age <= 37.0\ngini = 0.42\nsamples = 9\nvalue = [5, 12]\nclass = w", fillcolor="#8bc6f0"] ;
366 -> 368 ;
369 [label="age <= 35.5\ngini = 0.44\nsamples = 8\nvalue = [5, 10]\nclass = w", fillcolor="#9ccef2"] ;
368 -> 369 ;
370 [label="gini = 0.46\nsamples = 5\nvalue = [4, 7]\nclass = w", fillcolor="#aad5f4"] ;
369 -> 370 ;
371 [label="gini = 0.38\nsamples = 3\nvalue = [1, 3]\nclass = w", fillcolor="#7bbeee"] ;
369 -> 371 ;
372 [label="gini = 0.0\nsamples = 1\nvalue = [0, 2]\nclass = w", fillcolor="#399de5"] ;
368 -> 372 ;
373 [label="gender_Male <= 0.5\ngini = 0.49\nsamples = 55\nvalue = [48, 38]\nclass = o", fillcolor="#fae5d6"] ;
325 -> 373 ;
374 [label="age <= 34.5\ngini = 0.3\nsamples = 16\nvalue = [18, 4]\nclass = o", fillcolor="#eb9d65"] ;
373 -> 374 ;
375 [label="age <= 31.5\ngini = 0.39\nsamples = 12\nvalue = [11, 4]\nclass = o", fillcolor="#eeaf81"] ;
374 -> 375 ;
376 [label="age <= 20.5\ngini = 0.34\nsamples = 11\nvalue = [11, 3]\nclass = o", fillcolor="#eca36f"] ;
375 -> 376 ;
377 [label="gini = 0.0\nsamples = 3\nvalue = [3, 0]\nclass = o", fillcolor="#e58139"] ;
376 -> 377 ;
378 [label="age <= 22.5\ngini = 0.4\nsamples = 8\nvalue = [8, 3]\nclass = o", fillcolor="#efb083"] ;
376 -> 378 ;
379 [label="gini = 0.44\nsamples = 2\nvalue = [1, 2]\nclass = w", fillcolor="#9ccef2"] ;
378 -> 379 ;
380 [label="age <= 25.0\ngini = 0.22\nsamples = 6\nvalue = [7, 1]\nclass = o", fillcolor="#e99355"] ;
378 -> 380 ;
381 [label="gini = 0.0\nsamples = 2\nvalue = [3, 0]\nclass = o", fillcolor="#e58139"] ;
380 -> 381 ;
382 [label="age <= 27.5\ngini = 0.32\nsamples = 4\nvalue = [4, 1]\nclass = o", fillcolor="#eca06a"] ;
380 -> 382 ;
383 [label="gini = 0.38\nsamples = 3\nvalue = [3, 1]\nclass = o", fillcolor="#eeab7b"] ;
382 -> 383 ;
384 [label="gini = 0.0\nsamples = 1\nvalue = [1, 0]\nclass = o", fillcolor="#e58139"] ;
382 -> 384 ;
385 [label="gini = 0.0\nsamples = 1\nvalue = [0, 1]\nclass = w", fillcolor="#399de5"] ;
375 -> 385 ;
386 [label="gini = 0.0\nsamples = 4\nvalue = [7, 0]\nclass = o", fillcolor="#e58139"] ;
374 -> 386 ;
387 [label="age <= 26.5\ngini = 0.5\nsamples = 39\nvalue = [30, 34]\nclass = w", fillcolor="#e8f3fc"] ;
373 -> 387 ;
388 [label="age <= 24.5\ngini = 0.38\nsamples = 8\nvalue = [9, 3]\nclass = o", fillcolor="#eeab7b"] ;
387 -> 388 ;
389 [label="age <= 21.5\ngini = 0.49\nsamples = 5\nvalue = [4, 3]\nclass = o", fillcolor="#f8e0ce"] ;
388 -> 389 ;
390 [label="gini = 0.0\nsamples = 2\nvalue = [2, 0]\nclass = o", fillcolor="#e58139"] ;
389 -> 390 ;
391 [label="gini = 0.48\nsamples = 3\nvalue = [2, 3]\nclass = w", fillcolor="#bddef6"] ;
389 -> 391 ;
392 [label="gini = 0.0\nsamples = 3\nvalue = [5, 0]\nclass = o", fillcolor="#e58139"] ;
388 -> 392 ;
393 [label="age <= 32.5\ngini = 0.48\nsamples = 31\nvalue = [21, 31]\nclass = w", fillcolor="#bfdff7"] ;
387 -> 393 ;
394 [label="age <= 28.5\ngini = 0.36\nsamples = 16\nvalue = [7, 23]\nclass = w", fillcolor="#75bbed"] ;
393 -> 394 ;
395 [label="age <= 27.5\ngini = 0.5\nsamples = 2\nvalue = [1, 1]\nclass = o", fillcolor="#ffffff"] ;
394 -> 395 ;
396 [label="gini = 0.0\nsamples = 1\nvalue = [0, 1]\nclass = w", fillcolor="#399de5"] ;
395 -> 396 ;
397 [label="gini = 0.0\nsamples = 1\nvalue = [1, 0]\nclass = o", fillcolor="#e58139"] ;
395 -> 397 ;
398 [label="age <= 30.5\ngini = 0.34\nsamples = 14\nvalue = [6, 22]\nclass = w", fillcolor="#6fb8ec"] ;
394 -> 398 ;
399 [label="age <= 29.5\ngini = 0.39\nsamples = 9\nvalue = [4, 11]\nclass = w", fillcolor="#81c1ee"] ;
398 -> 399 ;
400 [label="gini = 0.28\nsamples = 4\nvalue = [1, 5]\nclass = w", fillcolor="#61b1ea"] ;
399 -> 400 ;
401 [label="gini = 0.44\nsamples = 5\nvalue = [3, 6]\nclass = w", fillcolor="#9ccef2"] ;
399 -> 401 ;
402 [label="age <= 31.5\ngini = 0.26\nsamples = 5\nvalue = [2, 11]\nclass = w", fillcolor="#5dafea"] ;
398 -> 402 ;
403 [label="gini = 0.0\nsamples = 1\nvalue = [0, 2]\nclass = w", fillcolor="#399de5"] ;
402 -> 403 ;
404 [label="gini = 0.3\nsamples = 4\nvalue = [2, 9]\nclass = w", fillcolor="#65b3eb"] ;
402 -> 404 ;
405 [label="age <= 34.5\ngini = 0.46\nsamples = 15\nvalue = [14, 8]\nclass = o", fillcolor="#f4c9aa"] ;
393 -> 405 ;
406 [label="gini = 0.0\nsamples = 3\nvalue = [4, 0]\nclass = o", fillcolor="#e58139"] ;
405 -> 406 ;
407 [label="age <= 35.5\ngini = 0.49\nsamples = 12\nvalue = [10, 8]\nclass = o", fillcolor="#fae6d7"] ;
405 -> 407 ;
408 [label="gini = 0.32\nsamples = 2\nvalue = [1, 4]\nclass = w", fillcolor="#6ab6ec"] ;
407 -> 408 ;
409 [label="age <= 37.5\ngini = 0.43\nsamples = 10\nvalue = [9, 4]\nclass = o", fillcolor="#f1b991"] ;
407 -> 409 ;
410 [label="gini = 0.0\nsamples = 4\nvalue = [5, 0]\nclass = o", fillcolor="#e58139"] ;
409 -> 410 ;
411 [label="age <= 39.5\ngini = 0.5\nsamples = 6\nvalue = [4, 4]\nclass = o", fillcolor="#ffffff"] ;
409 -> 411 ;
412 [label="age <= 38.5\ngini = 0.44\nsamples = 4\nvalue = [2, 4]\nclass = w", fillcolor="#9ccef2"] ;
411 -> 412 ;
413 [label="gini = 0.0\nsamples = 1\nvalue = [0, 1]\nclass = w", fillcolor="#399de5"] ;
412 -> 413 ;
414 [label="gini = 0.48\nsamples = 3\nvalue = [2, 3]\nclass = w", fillcolor="#bddef6"] ;
412 -> 414 ;
415 [label="gini = 0.0\nsamples = 2\nvalue = [2, 0]\nclass = o", fillcolor="#e58139"] ;
411 -> 415 ;
416 [label="age <= 43.5\ngini = 0.37\nsamples = 53\nvalue = [63, 20]\nclass = o", fillcolor="#eda978"] ;
324 -> 416 ;
417 [label="age <= 14.5\ngini = 0.35\nsamples = 52\nvalue = [63, 18]\nclass = o", fillcolor="#eca572"] ;
416 -> 417 ;
418 [label="region_Northeast <= 0.5\ngini = 0.44\nsamples = 3\nvalue = [1, 2]\nclass = w", fillcolor="#9ccef2"] ;
417 -> 418 ;
419 [label="gini = 0.0\nsamples = 2\nvalue = [0, 2]\nclass = w", fillcolor="#399de5"] ;
418 -> 419 ;
420 [label="gini = 0.0\nsamples = 1\nvalue = [1, 0]\nclass = o", fillcolor="#e58139"] ;
418 -> 420 ;
421 [label="gender_Female <= 0.5\ngini = 0.33\nsamples = 49\nvalue = [62, 16]\nclass = o", fillcolor="#eca26c"] ;
417 -> 421 ;
422 [label="region_Northeast <= 0.5\ngini = 0.38\nsamples = 20\nvalue = [23, 8]\nclass = o", fillcolor="#eead7e"] ;
421 -> 422 ;
423 [label="region_Midwest <= 0.5\ngini = 0.49\nsamples = 11\nvalue = [11, 8]\nclass = o", fillcolor="#f8ddc9"] ;
422 -> 423 ;
424 [label="age <= 19.5\ngini = 0.5\nsamples = 7\nvalue = [5, 6]\nclass = w", fillcolor="#deeffb"] ;
423 -> 424 ;
425 [label="gini = 0.0\nsamples = 3\nvalue = [4, 0]\nclass = o", fillcolor="#e58139"] ;
424 -> 425 ;
426 [label="age <= 23.5\ngini = 0.24\nsamples = 4\nvalue = [1, 6]\nclass = w", fillcolor="#5aade9"] ;
424 -> 426 ;
427 [label="gini = 0.0\nsamples = 1\nvalue = [0, 3]\nclass = w", fillcolor="#399de5"] ;
426 -> 427 ;
428 [label="age <= 26.5\ngini = 0.38\nsamples = 3\nvalue = [1, 3]\nclass = w", fillcolor="#7bbeee"] ;
426 -> 428 ;
429 [label="gini = 0.0\nsamples = 1\nvalue = [1, 0]\nclass = o", fillcolor="#e58139"] ;
428 -> 429 ;
430 [label="gini = 0.0\nsamples = 2\nvalue = [0, 3]\nclass = w", fillcolor="#399de5"] ;
428 -> 430 ;
431 [label="age <= 20.5\ngini = 0.38\nsamples = 4\nvalue = [6, 2]\nclass = o", fillcolor="#eeab7b"] ;
423 -> 431 ;
432 [label="gini = 0.0\nsamples = 1\nvalue = [0, 2]\nclass = w", fillcolor="#399de5"] ;
431 -> 432 ;
433 [label="gini = 0.0\nsamples = 3\nvalue = [6, 0]\nclass = o", fillcolor="#e58139"] ;
431 -> 433 ;
434 [label="gini = 0.0\nsamples = 9\nvalue = [12, 0]\nclass = o", fillcolor="#e58139"] ;
422 -> 434 ;
435 [label="region_Midwest <= 0.5\ngini = 0.28\nsamples = 29\nvalue = [39, 8]\nclass = o", fillcolor="#ea9b62"] ;
421 -> 435 ;
436 [label="age <= 23.5\ngini = 0.35\nsamples = 22\nvalue = [27, 8]\nclass = o", fillcolor="#eda674"] ;
435 -> 436 ;
437 [label="region_Northeast <= 0.5\ngini = 0.47\nsamples = 7\nvalue = [8, 5]\nclass = o", fillcolor="#f5d0b5"] ;
436 -> 437 ;
438 [label="gini = 0.0\nsamples = 3\nvalue = [5, 0]\nclass = o", fillcolor="#e58139"] ;
437 -> 438 ;
439 [label="age <= 21.0\ngini = 0.47\nsamples = 4\nvalue = [3, 5]\nclass = w", fillcolor="#b0d8f5"] ;
437 -> 439 ;
440 [label="age <= 18.5\ngini = 0.48\nsamples = 3\nvalue = [3, 2]\nclass = o", fillcolor="#f6d5bd"] ;
439 -> 440 ;
441 [label="gini = 0.5\nsamples = 2\nvalue = [2, 2]\nclass = o", fillcolor="#ffffff"] ;
440 -> 441 ;
442 [label="gini = 0.0\nsamples = 1\nvalue = [1, 0]\nclass = o", fillcolor="#e58139"] ;
440 -> 442 ;
443 [label="gini = 0.0\nsamples = 1\nvalue = [0, 3]\nclass = w", fillcolor="#399de5"] ;
439 -> 443 ;
444 [label="age <= 31.5\ngini = 0.24\nsamples = 15\nvalue = [19, 3]\nclass = o", fillcolor="#e99558"] ;
436 -> 444 ;
445 [label="gini = 0.0\nsamples = 8\nvalue = [12, 0]\nclass = o", fillcolor="#e58139"] ;
444 -> 445 ;
446 [label="region_West <= 0.5\ngini = 0.42\nsamples = 7\nvalue = [7, 3]\nclass = o", fillcolor="#f0b78e"] ;
444 -> 446 ;
447 [label="age <= 41.0\ngini = 0.44\nsamples = 3\nvalue = [2, 1]\nclass = o", fillcolor="#f2c09c"] ;
446 -> 447 ;
448 [label="gini = 0.0\nsamples = 2\nvalue = [2, 0]\nclass = o", fillcolor="#e58139"] ;
447 -> 448 ;
449 [label="gini = 0.0\nsamples = 1\nvalue = [0, 1]\nclass = w", fillcolor="#399de5"] ;
447 -> 449 ;
450 [label="age <= 35.5\ngini = 0.41\nsamples = 4\nvalue = [5, 2]\nclass = o", fillcolor="#efb388"] ;
446 -> 450 ;
451 [label="gini = 0.0\nsamples = 1\nvalue = [0, 2]\nclass = w", fillcolor="#399de5"] ;
450 -> 451 ;
452 [label="gini = 0.0\nsamples = 3\nvalue = [5, 0]\nclass = o", fillcolor="#e58139"] ;
450 -> 452 ;
453 [label="gini = 0.0\nsamples = 7\nvalue = [12, 0]\nclass = o", fillcolor="#e58139"] ;
435 -> 453 ;
454 [label="gini = 0.0\nsamples = 1\nvalue = [0, 2]\nclass = w", fillcolor="#399de5"] ;
416 -> 454 ;
455 [label="age <= 32.5\ngini = 0.33\nsamples = 88\nvalue = [109, 29]\nclass = o", fillcolor="#eca36e"] ;
323 -> 455 ;
456 [label="age <= 19.5\ngini = 0.21\nsamples = 51\nvalue = [66, 9]\nclass = o", fillcolor="#e99254"] ;
455 -> 456 ;
457 [label="age <= 18.5\ngini = 0.32\nsamples = 22\nvalue = [24, 6]\nclass = o", fillcolor="#eca06a"] ;
456 -> 457 ;
458 [label="age <= 15.0\ngini = 0.23\nsamples = 16\nvalue = [20, 3]\nclass = o", fillcolor="#e99457"] ;
457 -> 458 ;
459 [label="gender_Female <= 0.5\ngini = 0.5\nsamples = 2\nvalue = [1, 1]\nclass = o", fillcolor="#ffffff"] ;
458 -> 459 ;
460 [label="gini = 0.0\nsamples = 1\nvalue = [0, 1]\nclass = w", fillcolor="#399de5"] ;
459 -> 460 ;
461 [label="gini = 0.0\nsamples = 1\nvalue = [1, 0]\nclass = o", fillcolor="#e58139"] ;
459 -> 461 ;
462 [label="age <= 17.5\ngini = 0.17\nsamples = 14\nvalue = [19, 2]\nclass = o", fillcolor="#e88e4e"] ;
458 -> 462 ;
463 [label="gini = 0.0\nsamples = 6\nvalue = [9, 0]\nclass = o", fillcolor="#e58139"] ;
462 -> 463 ;
464 [label="gender_Male <= 0.5\ngini = 0.28\nsamples = 8\nvalue = [10, 2]\nclass = o", fillcolor="#ea9a61"] ;
462 -> 464 ;
465 [label="gini = 0.0\nsamples = 2\nvalue = [2, 0]\nclass = o", fillcolor="#e58139"] ;
464 -> 465 ;
466 [label="children_Yes <= 0.5\ngini = 0.32\nsamples = 6\nvalue = [8, 2]\nclass = o", fillcolor="#eca06a"] ;
464 -> 466 ;
467 [label="gini = 0.35\nsamples = 5\nvalue = [7, 2]\nclass = o", fillcolor="#eca572"] ;
466 -> 467 ;
468 [label="gini = 0.0\nsamples = 1\nvalue = [1, 0]\nclass = o", fillcolor="#e58139"] ;
466 -> 468 ;
469 [label="gender_Male <= 0.5\ngini = 0.49\nsamples = 6\nvalue = [4, 3]\nclass = o", fillcolor="#f8e0ce"] ;
457 -> 469 ;
470 [label="gini = 0.38\nsamples = 3\nvalue = [1, 3]\nclass = w", fillcolor="#7bbeee"] ;
469 -> 470 ;
471 [label="gini = 0.0\nsamples = 3\nvalue = [3, 0]\nclass = o", fillcolor="#e58139"] ;
469 -> 471 ;
472 [label="gender_Female <= 0.5\ngini = 0.12\nsamples = 29\nvalue = [42, 3]\nclass = o", fillcolor="#e78a47"] ;
456 -> 472 ;
473 [label="gini = 0.0\nsamples = 13\nvalue = [21, 0]\nclass = o", fillcolor="#e58139"] ;
472 -> 473 ;
474 [label="children_No <= 0.5\ngini = 0.22\nsamples = 16\nvalue = [21, 3]\nclass = o", fillcolor="#e99355"] ;
472 -> 474 ;
475 [label="age <= 24.5\ngini = 0.15\nsamples = 9\nvalue = [11, 1]\nclass = o", fillcolor="#e78c4b"] ;
474 -> 475 ;
476 [label="age <= 23.5\ngini = 0.28\nsamples = 3\nvalue = [5, 1]\nclass = o", fillcolor="#ea9a61"] ;
475 -> 476 ;
477 [label="gini = 0.0\nsamples = 2\nvalue = [5, 0]\nclass = o", fillcolor="#e58139"] ;
476 -> 477 ;
478 [label="gini = 0.0\nsamples = 1\nvalue = [0, 1]\nclass = w", fillcolor="#399de5"] ;
476 -> 478 ;
479 [label="gini = 0.0\nsamples = 6\nvalue = [6, 0]\nclass = o", fillcolor="#e58139"] ;
475 -> 479 ;
480 [label="age <= 26.5\ngini = 0.28\nsamples = 7\nvalue = [10, 2]\nclass = o", fillcolor="#ea9a61"] ;
474 -> 480 ;
481 [label="gini = 0.0\nsamples = 5\nvalue = [9, 0]\nclass = o", fillcolor="#e58139"] ;
480 -> 481 ;
482 [label="age <= 28.5\ngini = 0.44\nsamples = 2\nvalue = [1, 2]\nclass = w", fillcolor="#9ccef2"] ;
480 -> 482 ;
483 [label="gini = 0.0\nsamples = 1\nvalue = [0, 2]\nclass = w", fillcolor="#399de5"] ;
482 -> 483 ;
484 [label="gini = 0.0\nsamples = 1\nvalue = [1, 0]\nclass = o", fillcolor="#e58139"] ;
482 -> 484 ;
485 [label="children_Yes <= 0.5\ngini = 0.43\nsamples = 37\nvalue = [43, 20]\nclass = o", fillcolor="#f1bc95"] ;
455 -> 485 ;
486 [label="gini = 0.0\nsamples = 2\nvalue = [3, 0]\nclass = o", fillcolor="#e58139"] ;
485 -> 486 ;
487 [label="gender_Male <= 0.5\ngini = 0.44\nsamples = 35\nvalue = [40, 20]\nclass = o", fillcolor="#f2c09c"] ;
485 -> 487 ;
488 [label="age <= 35.5\ngini = 0.19\nsamples = 11\nvalue = [17, 2]\nclass = o", fillcolor="#e89050"] ;
487 -> 488 ;
489 [label="age <= 34.5\ngini = 0.44\nsamples = 3\nvalue = [2, 1]\nclass = o", fillcolor="#f2c09c"] ;
488 -> 489 ;
490 [label="gini = 0.0\nsamples = 2\nvalue = [2, 0]\nclass = o", fillcolor="#e58139"] ;
489 -> 490 ;
491 [label="gini = 0.0\nsamples = 1\nvalue = [0, 1]\nclass = w", fillcolor="#399de5"] ;
489 -> 491 ;
492 [label="age <= 36.5\ngini = 0.12\nsamples = 8\nvalue = [15, 1]\nclass = o", fillcolor="#e78946"] ;
488 -> 492 ;
493 [label="gini = 0.0\nsamples = 2\nvalue = [5, 0]\nclass = o", fillcolor="#e58139"] ;
492 -> 493 ;
494 [label="age <= 40.0\ngini = 0.17\nsamples = 6\nvalue = [10, 1]\nclass = o", fillcolor="#e88e4d"] ;
492 -> 494 ;
495 [label="gini = 0.2\nsamples = 4\nvalue = [8, 1]\nclass = o", fillcolor="#e89152"] ;
494 -> 495 ;
496 [label="gini = 0.0\nsamples = 2\nvalue = [2, 0]\nclass = o", fillcolor="#e58139"] ;
494 -> 496 ;
497 [label="age <= 41.5\ngini = 0.49\nsamples = 24\nvalue = [23, 18]\nclass = o", fillcolor="#f9e4d4"] ;
487 -> 497 ;
498 [label="age <= 37.5\ngini = 0.5\nsamples = 20\nvalue = [17, 17]\nclass = o", fillcolor="#ffffff"] ;
497 -> 498 ;
499 [label="age <= 36.5\ngini = 0.5\nsamples = 17\nvalue = [17, 14]\nclass = o", fillcolor="#fae9dc"] ;
498 -> 499 ;
500 [label="age <= 34.5\ngini = 0.5\nsamples = 13\nvalue = [11, 12]\nclass = w", fillcolor="#eff7fd"] ;
499 -> 500 ;
501 [label="age <= 33.5\ngini = 0.47\nsamples = 8\nvalue = [8, 5]\nclass = o", fillcolor="#f5d0b5"] ;
500 -> 501 ;
502 [label="gini = 0.46\nsamples = 6\nvalue = [7, 4]\nclass = o", fillcolor="#f4c9aa"] ;
501 -> 502 ;
503 [label="gini = 0.5\nsamples = 2\nvalue = [1, 1]\nclass = o", fillcolor="#ffffff"] ;
501 -> 503 ;
504 [label="age <= 35.5\ngini = 0.42\nsamples = 5\nvalue = [3, 7]\nclass = w", fillcolor="#8ec7f0"] ;
500 -> 504 ;
505 [label="gini = 0.0\nsamples = 1\nvalue = [0, 3]\nclass = w", fillcolor="#399de5"] ;
504 -> 505 ;
506 [label="gini = 0.49\nsamples = 4\nvalue = [3, 4]\nclass = w", fillcolor="#cee6f8"] ;
504 -> 506 ;
507 [label="gini = 0.38\nsamples = 4\nvalue = [6, 2]\nclass = o", fillcolor="#eeab7b"] ;
499 -> 507 ;
508 [label="gini = 0.0\nsamples = 3\nvalue = [0, 3]\nclass = w", fillcolor="#399de5"] ;
498 -> 508 ;
509 [label="age <= 42.5\ngini = 0.24\nsamples = 4\nvalue = [6, 1]\nclass = o", fillcolor="#e9965a"] ;
497 -> 509 ;
510 [label="gini = 0.0\nsamples = 1\nvalue = [4, 0]\nclass = o", fillcolor="#e58139"] ;
509 -> 510 ;
511 [label="gini = 0.44\nsamples = 3\nvalue = [2, 1]\nclass = o", fillcolor="#f2c09c"] ;
509 -> 511 ;
512 [label="income_cat_$100,000 to $299,999 <= 0.5\ngini = 0.07\nsamples = 616\nvalue = [940, 34]\nclass = o", fillcolor="#e68640"] ;
0 -> 512 [labeldistance=2.5, labelangle=-45, headlabel="False"] ;
513 [label="gender_Female <= 0.5\ngini = 0.05\nsamples = 519\nvalue = [793, 23]\nclass = o", fillcolor="#e6853f"] ;
512 -> 513 ;
514 [label="age <= 55.5\ngini = 0.02\nsamples = 226\nvalue = [354, 4]\nclass = o", fillcolor="#e5823b"] ;
513 -> 514 ;
515 [label="region_South <= 0.5\ngini = 0.05\nsamples = 55\nvalue = [82, 2]\nclass = o", fillcolor="#e6843e"] ;
514 -> 515 ;
516 [label="income_cat_Less than $29,999 <= 0.5\ngini = 0.07\nsamples = 36\nvalue = [53, 2]\nclass = o", fillcolor="#e68640"] ;
515 -> 516 ;
517 [label="gini = 0.0\nsamples = 25\nvalue = [37, 0]\nclass = o", fillcolor="#e58139"] ;
516 -> 517 ;
518 [label="age <= 54.5\ngini = 0.2\nsamples = 11\nvalue = [16, 2]\nclass = o", fillcolor="#e89152"] ;
516 -> 518 ;
519 [label="gini = 0.0\nsamples = 10\nvalue = [16, 0]\nclass = o", fillcolor="#e58139"] ;
518 -> 519 ;
520 [label="gini = 0.0\nsamples = 1\nvalue = [0, 2]\nclass = w", fillcolor="#399de5"] ;
518 -> 520 ;
521 [label="gini = 0.0\nsamples = 19\nvalue = [29, 0]\nclass = o", fillcolor="#e58139"] ;
515 -> 521 ;
522 [label="income_cat_Do not know <= 0.5\ngini = 0.01\nsamples = 171\nvalue = [272, 2]\nclass = o", fillcolor="#e5823a"] ;
514 -> 522 ;
523 [label="region_Northeast <= 0.5\ngini = 0.01\nsamples = 163\nvalue = [265, 1]\nclass = o", fillcolor="#e5813a"] ;
522 -> 523 ;
524 [label="region_West <= 0.5\ngini = 0.01\nsamples = 131\nvalue = [208, 1]\nclass = o", fillcolor="#e5823a"] ;
523 -> 524 ;
525 [label="income_cat_Less than $29,999 <= 0.5\ngini = 0.01\nsamples = 95\nvalue = [147, 1]\nclass = o", fillcolor="#e5823a"] ;
524 -> 525 ;
526 [label="gini = 0.0\nsamples = 72\nvalue = [113, 0]\nclass = o", fillcolor="#e58139"] ;
525 -> 526 ;
527 [label="age <= 72.0\ngini = 0.06\nsamples = 23\nvalue = [34, 1]\nclass = o", fillcolor="#e6853f"] ;
525 -> 527 ;
528 [label="gini = 0.0\nsamples = 14\nvalue = [22, 0]\nclass = o", fillcolor="#e58139"] ;
527 -> 528 ;
529 [label="region_Midwest <= 0.5\ngini = 0.14\nsamples = 9\nvalue = [12, 1]\nclass = o", fillcolor="#e78c49"] ;
527 -> 529 ;
530 [label="age <= 73.5\ngini = 0.18\nsamples = 7\nvalue = [9, 1]\nclass = o", fillcolor="#e88f4f"] ;
529 -> 530 ;
531 [label="gini = 0.5\nsamples = 2\nvalue = [1, 1]\nclass = o", fillcolor="#ffffff"] ;
530 -> 531 ;
532 [label="gini = 0.0\nsamples = 5\nvalue = [8, 0]\nclass = o", fillcolor="#e58139"] ;
530 -> 532 ;
533 [label="gini = 0.0\nsamples = 2\nvalue = [3, 0]\nclass = o", fillcolor="#e58139"] ;
529 -> 533 ;
534 [label="gini = 0.0\nsamples = 36\nvalue = [61, 0]\nclass = o", fillcolor="#e58139"] ;
524 -> 534 ;
535 [label="gini = 0.0\nsamples = 32\nvalue = [57, 0]\nclass = o", fillcolor="#e58139"] ;
523 -> 535 ;
536 [label="age <= 70.0\ngini = 0.22\nsamples = 8\nvalue = [7, 1]\nclass = o", fillcolor="#e99355"] ;
522 -> 536 ;
537 [label="region_Northeast <= 0.5\ngini = 0.44\nsamples = 3\nvalue = [2, 1]\nclass = o", fillcolor="#f2c09c"] ;
536 -> 537 ;
538 [label="age <= 68.5\ngini = 0.5\nsamples = 2\nvalue = [1, 1]\nclass = o", fillcolor="#ffffff"] ;
537 -> 538 ;
539 [label="gini = 0.0\nsamples = 1\nvalue = [1, 0]\nclass = o", fillcolor="#e58139"] ;
538 -> 539 ;
540 [label="gini = 0.0\nsamples = 1\nvalue = [0, 1]\nclass = w", fillcolor="#399de5"] ;
538 -> 540 ;
541 [label="gini = 0.0\nsamples = 1\nvalue = [1, 0]\nclass = o", fillcolor="#e58139"] ;
537 -> 541 ;
542 [label="gini = 0.0\nsamples = 5\nvalue = [5, 0]\nclass = o", fillcolor="#e58139"] ;
536 -> 542 ;
543 [label="children_No <= 0.5\ngini = 0.08\nsamples = 293\nvalue = [439, 19]\nclass = o", fillcolor="#e68642"] ;
513 -> 543 ;
544 [label="age <= 46.5\ngini = 0.16\nsamples = 56\nvalue = [81, 8]\nclass = o", fillcolor="#e88d4d"] ;
543 -> 544 ;
545 [label="income_cat_$50,000 to $99,999 <= 0.5\ngini = 0.42\nsamples = 12\nvalue = [12, 5]\nclass = o", fillcolor="#f0b58b"] ;
544 -> 545 ;
546 [label="age <= 45.5\ngini = 0.3\nsamples = 9\nvalue = [9, 2]\nclass = o", fillcolor="#eb9d65"] ;
545 -> 546 ;
547 [label="gini = 0.0\nsamples = 3\nvalue = [3, 0]\nclass = o", fillcolor="#e58139"] ;
546 -> 547 ;
548 [label="income_cat_$30,000 to $49,999 <= 0.5\ngini = 0.38\nsamples = 6\nvalue = [6, 2]\nclass = o", fillcolor="#eeab7b"] ;
546 -> 548 ;
549 [label="income_cat_More than $300,000 <= 0.5\ngini = 0.32\nsamples = 4\nvalue = [4, 1]\nclass = o", fillcolor="#eca06a"] ;
548 -> 549 ;
550 [label="region_Northeast <= 0.5\ngini = 0.38\nsamples = 3\nvalue = [3, 1]\nclass = o", fillcolor="#eeab7b"] ;
549 -> 550 ;
551 [label="region_Midwest <= 0.5\ngini = 0.44\nsamples = 2\nvalue = [2, 1]\nclass = o", fillcolor="#f2c09c"] ;
550 -> 551 ;
552 [label="gini = 0.0\nsamples = 1\nvalue = [2, 0]\nclass = o", fillcolor="#e58139"] ;
551 -> 552 ;
553 [label="gini = 0.0\nsamples = 1\nvalue = [0, 1]\nclass = w", fillcolor="#399de5"] ;
551 -> 553 ;
554 [label="gini = 0.0\nsamples = 1\nvalue = [1, 0]\nclass = o", fillcolor="#e58139"] ;
550 -> 554 ;
555 [label="gini = 0.0\nsamples = 1\nvalue = [1, 0]\nclass = o", fillcolor="#e58139"] ;
549 -> 555 ;
556 [label="region_Northeast <= 0.5\ngini = 0.44\nsamples = 2\nvalue = [2, 1]\nclass = o", fillcolor="#f2c09c"] ;
548 -> 556 ;
557 [label="gini = 0.0\nsamples = 1\nvalue = [2, 0]\nclass = o", fillcolor="#e58139"] ;
556 -> 557 ;
558 [label="gini = 0.0\nsamples = 1\nvalue = [0, 1]\nclass = w", fillcolor="#399de5"] ;
556 -> 558 ;
559 [label="region_Midwest <= 0.5\ngini = 0.5\nsamples = 3\nvalue = [3, 3]\nclass = o", fillcolor="#ffffff"] ;
545 -> 559 ;
560 [label="gini = 0.38\nsamples = 2\nvalue = [1, 3]\nclass = w", fillcolor="#7bbeee"] ;
559 -> 560 ;
561 [label="gini = 0.0\nsamples = 1\nvalue = [2, 0]\nclass = o", fillcolor="#e58139"] ;
559 -> 561 ;
562 [label="region_South <= 0.5\ngini = 0.08\nsamples = 44\nvalue = [69, 3]\nclass = o", fillcolor="#e68642"] ;
544 -> 562 ;
563 [label="income_cat_$30,000 to $49,999 <= 0.5\ngini = 0.09\nsamples = 27\nvalue = [42, 2]\nclass = o", fillcolor="#e68742"] ;
562 -> 563 ;
564 [label="income_cat_$50,000 to $99,999 <= 0.5\ngini = 0.14\nsamples = 17\nvalue = [24, 2]\nclass = o", fillcolor="#e78c49"] ;
563 -> 564 ;
565 [label="age <= 49.5\ngini = 0.28\nsamples = 7\nvalue = [10, 2]\nclass = o", fillcolor="#ea9a61"] ;
564 -> 565 ;
566 [label="region_Northeast <= 0.5\ngini = 0.41\nsamples = 3\nvalue = [5, 2]\nclass = o", fillcolor="#efb388"] ;
565 -> 566 ;
567 [label="gini = 0.0\nsamples = 1\nvalue = [0, 2]\nclass = w", fillcolor="#399de5"] ;
566 -> 567 ;
568 [label="gini = 0.0\nsamples = 2\nvalue = [5, 0]\nclass = o", fillcolor="#e58139"] ;
566 -> 568 ;
569 [label="gini = 0.0\nsamples = 4\nvalue = [5, 0]\nclass = o", fillcolor="#e58139"] ;
565 -> 569 ;
570 [label="gini = 0.0\nsamples = 10\nvalue = [14, 0]\nclass = o", fillcolor="#e58139"] ;
564 -> 570 ;
571 [label="gini = 0.0\nsamples = 10\nvalue = [18, 0]\nclass = o", fillcolor="#e58139"] ;
563 -> 571 ;
572 [label="income_cat_$30,000 to $49,999 <= 0.5\ngini = 0.07\nsamples = 17\nvalue = [27, 1]\nclass = o", fillcolor="#e68640"] ;
562 -> 572 ;
573 [label="gini = 0.0\nsamples = 15\nvalue = [24, 0]\nclass = o", fillcolor="#e58139"] ;
572 -> 573 ;
574 [label="age <= 55.5\ngini = 0.38\nsamples = 2\nvalue = [3, 1]\nclass = o", fillcolor="#eeab7b"] ;
572 -> 574 ;
575 [label="gini = 0.0\nsamples = 1\nvalue = [0, 1]\nclass = w", fillcolor="#399de5"] ;
574 -> 575 ;
576 [label="gini = 0.0\nsamples = 1\nvalue = [3, 0]\nclass = o", fillcolor="#e58139"] ;
574 -> 576 ;
577 [label="region_South <= 0.5\ngini = 0.06\nsamples = 237\nvalue = [358, 11]\nclass = o", fillcolor="#e6853f"] ;
543 -> 577 ;
578 [label="income_cat_Do not know <= 0.5\ngini = 0.07\nsamples = 137\nvalue = [205, 8]\nclass = o", fillcolor="#e68641"] ;
577 -> 578 ;
579 [label="region_Midwest <= 0.5\ngini = 0.08\nsamples = 129\nvalue = [192, 8]\nclass = o", fillcolor="#e68641"] ;
578 -> 579 ;
580 [label="income_cat_More than $300,000 <= 0.5\ngini = 0.09\nsamples = 81\nvalue = [119, 6]\nclass = o", fillcolor="#e68743"] ;
579 -> 580 ;
581 [label="income_cat_Less than $29,999 <= 0.5\ngini = 0.09\nsamples = 80\nvalue = [118, 6]\nclass = o", fillcolor="#e68743"] ;
580 -> 581 ;
582 [label="region_Northeast <= 0.5\ngini = 0.13\nsamples = 53\nvalue = [77, 6]\nclass = o", fillcolor="#e78b48"] ;
581 -> 582 ;
583 [label="income_cat_$30,000 to $49,999 <= 0.5\ngini = 0.18\nsamples = 26\nvalue = [36, 4]\nclass = o", fillcolor="#e88f4f"] ;
582 -> 583 ;
584 [label="age <= 62.0\ngini = 0.24\nsamples = 18\nvalue = [25, 4]\nclass = o", fillcolor="#e99559"] ;
583 -> 584 ;
585 [label="gini = 0.0\nsamples = 5\nvalue = [10, 0]\nclass = o", fillcolor="#e58139"] ;
584 -> 585 ;
586 [label="age <= 66.5\ngini = 0.33\nsamples = 13\nvalue = [15, 4]\nclass = o", fillcolor="#eca36e"] ;
584 -> 586 ;
587 [label="gini = 0.0\nsamples = 1\nvalue = [0, 2]\nclass = w", fillcolor="#399de5"] ;
586 -> 587 ;
588 [label="age <= 71.5\ngini = 0.21\nsamples = 12\nvalue = [15, 2]\nclass = o", fillcolor="#e89253"] ;
586 -> 588 ;
589 [label="age <= 70.5\ngini = 0.38\nsamples = 6\nvalue = [6, 2]\nclass = o", fillcolor="#eeab7b"] ;
588 -> 589 ;
590 [label="gini = 0.0\nsamples = 5\nvalue = [6, 0]\nclass = o", fillcolor="#e58139"] ;
589 -> 590 ;
591 [label="gini = 0.0\nsamples = 1\nvalue = [0, 2]\nclass = w", fillcolor="#399de5"] ;
589 -> 591 ;
592 [label="gini = 0.0\nsamples = 6\nvalue = [9, 0]\nclass = o", fillcolor="#e58139"] ;
588 -> 592 ;
593 [label="gini = 0.0\nsamples = 8\nvalue = [11, 0]\nclass = o", fillcolor="#e58139"] ;
583 -> 593 ;
594 [label="age <= 64.0\ngini = 0.09\nsamples = 27\nvalue = [41, 2]\nclass = o", fillcolor="#e68743"] ;
582 -> 594 ;
595 [label="age <= 58.0\ngini = 0.41\nsamples = 4\nvalue = [5, 2]\nclass = o", fillcolor="#efb388"] ;
594 -> 595 ;
596 [label="gini = 0.0\nsamples = 3\nvalue = [5, 0]\nclass = o", fillcolor="#e58139"] ;
595 -> 596 ;
597 [label="gini = 0.0\nsamples = 1\nvalue = [0, 2]\nclass = w", fillcolor="#399de5"] ;
595 -> 597 ;
598 [label="gini = 0.0\nsamples = 23\nvalue = [36, 0]\nclass = o", fillcolor="#e58139"] ;
594 -> 598 ;
599 [label="gini = 0.0\nsamples = 27\nvalue = [41, 0]\nclass = o", fillcolor="#e58139"] ;
581 -> 599 ;
600 [label="gini = 0.0\nsamples = 1\nvalue = [1, 0]\nclass = o", fillcolor="#e58139"] ;
580 -> 600 ;
601 [label="income_cat_$50,000 to $99,999 <= 0.5\ngini = 0.05\nsamples = 48\nvalue = [73, 2]\nclass = o", fillcolor="#e6843e"] ;
579 -> 601 ;
602 [label="income_cat_$30,000 to $49,999 <= 0.5\ngini = 0.07\nsamples = 35\nvalue = [52, 2]\nclass = o", fillcolor="#e68641"] ;
601 -> 602 ;
603 [label="gini = 0.0\nsamples = 19\nvalue = [33, 0]\nclass = o", fillcolor="#e58139"] ;
602 -> 603 ;
604 [label="age <= 68.0\ngini = 0.17\nsamples = 16\nvalue = [19, 2]\nclass = o", fillcolor="#e88e4e"] ;
602 -> 604 ;
605 [label="age <= 66.5\ngini = 0.41\nsamples = 6\nvalue = [5, 2]\nclass = o", fillcolor="#efb388"] ;
604 -> 605 ;
606 [label="age <= 60.5\ngini = 0.28\nsamples = 5\nvalue = [5, 1]\nclass = o", fillcolor="#ea9a61"] ;
605 -> 606 ;
607 [label="age <= 55.5\ngini = 0.44\nsamples = 3\nvalue = [2, 1]\nclass = o", fillcolor="#f2c09c"] ;
606 -> 607 ;
608 [label="gini = 0.0\nsamples = 2\nvalue = [2, 0]\nclass = o", fillcolor="#e58139"] ;
607 -> 608 ;
609 [label="gini = 0.0\nsamples = 1\nvalue = [0, 1]\nclass = w", fillcolor="#399de5"] ;
607 -> 609 ;
610 [label="gini = 0.0\nsamples = 2\nvalue = [3, 0]\nclass = o", fillcolor="#e58139"] ;
606 -> 610 ;
611 [label="gini = 0.0\nsamples = 1\nvalue = [0, 1]\nclass = w", fillcolor="#399de5"] ;
605 -> 611 ;
612 [label="gini = 0.0\nsamples = 10\nvalue = [14, 0]\nclass = o", fillcolor="#e58139"] ;
604 -> 612 ;
613 [label="gini = 0.0\nsamples = 13\nvalue = [21, 0]\nclass = o", fillcolor="#e58139"] ;
601 -> 613 ;
614 [label="gini = 0.0\nsamples = 8\nvalue = [13, 0]\nclass = o", fillcolor="#e58139"] ;
578 -> 614 ;
615 [label="income_cat_$50,000 to $99,999 <= 0.5\ngini = 0.04\nsamples = 100\nvalue = [153, 3]\nclass = o", fillcolor="#e6833d"] ;
577 -> 615 ;
616 [label="gini = 0.0\nsamples = 70\nvalue = [108, 0]\nclass = o", fillcolor="#e58139"] ;
615 -> 616 ;
617 [label="age <= 56.5\ngini = 0.12\nsamples = 30\nvalue = [45, 3]\nclass = o", fillcolor="#e78946"] ;
615 -> 617 ;
618 [label="age <= 54.5\ngini = 0.34\nsamples = 7\nvalue = [11, 3]\nclass = o", fillcolor="#eca36f"] ;
617 -> 618 ;
619 [label="age <= 52.5\ngini = 0.26\nsamples = 6\nvalue = [11, 2]\nclass = o", fillcolor="#ea985d"] ;
618 -> 619 ;
620 [label="gini = 0.0\nsamples = 3\nvalue = [7, 0]\nclass = o", fillcolor="#e58139"] ;
619 -> 620 ;
621 [label="age <= 53.5\ngini = 0.44\nsamples = 3\nvalue = [4, 2]\nclass = o", fillcolor="#f2c09c"] ;
619 -> 621 ;
622 [label="gini = 0.44\nsamples = 2\nvalue = [1, 2]\nclass = w", fillcolor="#9ccef2"] ;
621 -> 622 ;
623 [label="gini = 0.0\nsamples = 1\nvalue = [3, 0]\nclass = o", fillcolor="#e58139"] ;
621 -> 623 ;
624 [label="gini = 0.0\nsamples = 1\nvalue = [0, 1]\nclass = w", fillcolor="#399de5"] ;
618 -> 624 ;
625 [label="gini = 0.0\nsamples = 23\nvalue = [34, 0]\nclass = o", fillcolor="#e58139"] ;
617 -> 625 ;
626 [label="gender_Female <= 0.5\ngini = 0.13\nsamples = 97\nvalue = [147, 11]\nclass = o", fillcolor="#e78a48"] ;
512 -> 626 ;
627 [label="region_Northeast <= 0.5\ngini = 0.17\nsamples = 62\nvalue = [87, 9]\nclass = o", fillcolor="#e88e4d"] ;
626 -> 627 ;
628 [label="age <= 68.5\ngini = 0.12\nsamples = 40\nvalue = [56, 4]\nclass = o", fillcolor="#e78a47"] ;
627 -> 628 ;
629 [label="children_No <= 0.5\ngini = 0.22\nsamples = 20\nvalue = [28, 4]\nclass = o", fillcolor="#e99355"] ;
628 -> 629 ;
630 [label="region_West <= 0.5\ngini = 0.32\nsamples = 5\nvalue = [4, 1]\nclass = o", fillcolor="#eca06a"] ;
629 -> 630 ;
631 [label="gini = 0.0\nsamples = 3\nvalue = [3, 0]\nclass = o", fillcolor="#e58139"] ;
630 -> 631 ;
632 [label="age <= 52.5\ngini = 0.5\nsamples = 2\nvalue = [1, 1]\nclass = o", fillcolor="#ffffff"] ;
630 -> 632 ;
633 [label="gini = 0.0\nsamples = 1\nvalue = [0, 1]\nclass = w", fillcolor="#399de5"] ;
632 -> 633 ;
634 [label="gini = 0.0\nsamples = 1\nvalue = [1, 0]\nclass = o", fillcolor="#e58139"] ;
632 -> 634 ;
635 [label="age <= 67.5\ngini = 0.2\nsamples = 15\nvalue = [24, 3]\nclass = o", fillcolor="#e89152"] ;
629 -> 635 ;
636 [label="region_Midwest <= 0.5\ngini = 0.08\nsamples = 13\nvalue = [23, 1]\nclass = o", fillcolor="#e68642"] ;
635 -> 636 ;
637 [label="gini = 0.0\nsamples = 7\nvalue = [14, 0]\nclass = o", fillcolor="#e58139"] ;
636 -> 637 ;
638 [label="age <= 51.5\ngini = 0.18\nsamples = 6\nvalue = [9, 1]\nclass = o", fillcolor="#e88f4f"] ;
636 -> 638 ;
639 [label="gini = 0.0\nsamples = 3\nvalue = [3, 0]\nclass = o", fillcolor="#e58139"] ;
638 -> 639 ;
640 [label="age <= 59.5\ngini = 0.24\nsamples = 3\nvalue = [6, 1]\nclass = o", fillcolor="#e9965a"] ;
638 -> 640 ;
641 [label="gini = 0.38\nsamples = 2\nvalue = [3, 1]\nclass = o", fillcolor="#eeab7b"] ;
640 -> 641 ;
642 [label="gini = 0.0\nsamples = 1\nvalue = [3, 0]\nclass = o", fillcolor="#e58139"] ;
640 -> 642 ;
643 [label="region_South <= 0.5\ngini = 0.44\nsamples = 2\nvalue = [1, 2]\nclass = w", fillcolor="#9ccef2"] ;
635 -> 643 ;
644 [label="gini = 0.0\nsamples = 1\nvalue = [1, 0]\nclass = o", fillcolor="#e58139"] ;
643 -> 644 ;
645 [label="gini = 0.0\nsamples = 1\nvalue = [0, 2]\nclass = w", fillcolor="#399de5"] ;
643 -> 645 ;
646 [label="gini = 0.0\nsamples = 20\nvalue = [28, 0]\nclass = o", fillcolor="#e58139"] ;
628 -> 646 ;
647 [label="children_Yes <= 0.5\ngini = 0.24\nsamples = 22\nvalue = [31, 5]\nclass = o", fillcolor="#e99559"] ;
627 -> 647 ;
648 [label="age <= 68.5\ngini = 0.24\nsamples = 19\nvalue = [25, 4]\nclass = o", fillcolor="#e99559"] ;
647 -> 648 ;
649 [label="age <= 62.5\ngini = 0.43\nsamples = 8\nvalue = [9, 4]\nclass = o", fillcolor="#f1b991"] ;
648 -> 649 ;
650 [label="gini = 0.0\nsamples = 4\nvalue = [6, 0]\nclass = o", fillcolor="#e58139"] ;
649 -> 650 ;
651 [label="age <= 67.0\ngini = 0.49\nsamples = 4\nvalue = [3, 4]\nclass = w", fillcolor="#cee6f8"] ;
649 -> 651 ;
652 [label="gini = 0.5\nsamples = 2\nvalue = [2, 2]\nclass = o", fillcolor="#ffffff"] ;
651 -> 652 ;
653 [label="gini = 0.44\nsamples = 2\nvalue = [1, 2]\nclass = w", fillcolor="#9ccef2"] ;
651 -> 653 ;
654 [label="gini = 0.0\nsamples = 11\nvalue = [16, 0]\nclass = o", fillcolor="#e58139"] ;
648 -> 654 ;
655 [label="age <= 55.5\ngini = 0.24\nsamples = 3\nvalue = [6, 1]\nclass = o", fillcolor="#e9965a"] ;
647 -> 655 ;
656 [label="gini = 0.0\nsamples = 1\nvalue = [4, 0]\nclass = o", fillcolor="#e58139"] ;
655 -> 656 ;
657 [label="gini = 0.44\nsamples = 2\nvalue = [2, 1]\nclass = o", fillcolor="#f2c09c"] ;
655 -> 657 ;
658 [label="children_No <= 0.5\ngini = 0.06\nsamples = 35\nvalue = [60, 2]\nclass = o", fillcolor="#e68540"] ;
626 -> 658 ;
659 [label="gini = 0.0\nsamples = 9\nvalue = [15, 0]\nclass = o", fillcolor="#e58139"] ;
658 -> 659 ;
660 [label="age <= 66.5\ngini = 0.08\nsamples = 26\nvalue = [45, 2]\nclass = o", fillcolor="#e68742"] ;
658 -> 660 ;
661 [label="region_Northeast <= 0.5\ngini = 0.17\nsamples = 13\nvalue = [20, 2]\nclass = o", fillcolor="#e88e4d"] ;
660 -> 661 ;
662 [label="age <= 64.5\ngini = 0.23\nsamples = 10\nvalue = [13, 2]\nclass = o", fillcolor="#e99457"] ;
661 -> 662 ;
663 [label="gini = 0.0\nsamples = 7\nvalue = [9, 0]\nclass = o", fillcolor="#e58139"] ;
662 -> 663 ;
664 [label="gini = 0.44\nsamples = 3\nvalue = [4, 2]\nclass = o", fillcolor="#f2c09c"] ;
662 -> 664 ;
665 [label="gini = 0.0\nsamples = 3\nvalue = [7, 0]\nclass = o", fillcolor="#e58139"] ;
661 -> 665 ;
666 [label="gini = 0.0\nsamples = 13\nvalue = [25, 0]\nclass = o", fillcolor="#e58139"] ;
660 -> 666 ;
}